1.226364411345125943e-01,-1.119512737340256775e-01,8.892995426417607541e-02,1.878160045210284790e-01,1.578646935839026488e-01,1.696453608117479139e-01,-2.060455397297965979e-02,1.811179035016341476e-01,-4.168855512743919328e-02,-1.916780840054295165e-01,-1.664392689219911653e-02,-2.480565341368425047e-01,8.028886501654303176e-02,-5.255131802225054827e-02,-1.517669231592800871e-01,6.388654367342236351e-02,-6.317461741243573375e-03,-1.361949015395887419e-01,1.378464030403831753e-01,-3.321688801714965666e-02,2.676594847836803823e-03,-2.556099131749543438e-02,1.908688563305674102e-01,-1.402361520739967005e-01,1.152778838174775208e-02,-7.510679754871554814e-02,-5.250272709387885511e-02,2.159650170674864422e-01,2.169092026832083187e-01,-1.635933611019644573e-01,1.445685780678813981e-01,-1.510184781749008762e-02,-1.269618806080048401e-01,-7.064961610767345190e-02,1.131757567764527100e-01,-1.021433963125425309e-01,-6.222762538290225326e-02,4.018026489191393186e-02,1.161267361429366152e-01,5.234211190162233081e-03,2.109971413509154764e-02,2.712927152487267651e-02,-7.495954748216177022e-02,-5.091569495823136671e-02,-3.421130582908563783e-02,-1.943842467371621752e-01,-7.305526051367036700e-02,-6.685390737602805999e-02,-1.242077495868018910e-01,2.175680092811291821e-01
1.812622010175141130e-02,-6.012741572514350430e-02,9.097019214482839067e-02,1.981056906739487589e-01,1.167598156363879314e-01,9.852185065798785280e-02,-2.636583525945998194e-02,1.709631498271405037e-01,-2.066720978830383429e-02,-1.349454800243259089e-01,-4.336081856949003388e-02,-2.290567730552733605e-01,9.375136016402139949e-02,-5.480849591431398438e-02,-1.254077998912037917e-01,6.887973838011908490e-02,2.151850930961883221e-02,-1.161956173190446251e-01,8.169297080818810342e-02,-7.998923331323144065e-03,3.530750414904284401e-02,-6.359949740826695286e-02,1.453189676975871203e-01,-1.533323220834469647e-01,5.845589827066386551e-02,-8.822248693152130727e-02,1.605405577603720088e-02,1.866337823274355490e-01,1.497236190577607706e-01,-1.807946726418207806e-01,9.668917839587758134e-02,2.382763738124901720e-02,-3.998707635070698069e-02,-4.634813602228842616e-02,7.021516970577036665e-02,-1.291768476095515317e-01,-7.788195929253062533e-02,1.568571604424982141e-02,1.049420997231552272e-01,7.053930714096483257e-02,-5.649979567655275502e-03,5.175772022594707367e-02,-4.857559190283384370e-02,-1.204907819400704086e-02,-8.735971269684879303e-02,-1.181134202201623573e-01,-4.027783776699775387e-02,-4.774161531256668201e-02,-1.515567626315671990e-01,1.273021956322003267e-01
9.713673199473182862e-02,-1.570325950578140284e-01,-8.881938437576007359e-03,2.335131226205061361e-01,1.532012636651757798e-01,1.324393827773757970e-01,6.262486864765939854e-02,2.573571356166247104e-01,-1.230258788536422593e-01,-7.476808060250797472e-02,2.978043606677664712e-02,-1.781471108174500495e-01,-7.241165970035191857e-02,-1.472260221481475895e-01,5.452613611428164947e-02,-3.292615043555376375e-01,-7.029607291343548114e-02,-7.647729478042726570e-02,3.059688916487467436e-01,-9.665475043729886140e-02,5.860835761164621960e-02,-1.142963771206054469e-01,2.759497583118821762e-01,-2.232740173011706353e-01,-1.818351327688721986e-01,-5.875336084055345076e-02,-2.184697533359148715e-03,1.206922051174359606e-01,3.057675808842579834e-01,1.213312006278940980e-01,1.418465554651655580e-01,-3.778404045109097498e-02,5.383991876190464404e-02,-9.814250035832597363e-02,-1.545224554139767725e-01,-5.078823327222721506e-02,8.614843237982926227e-02,-3.021920244021020219e-01,3.385754092650486435e-01,-1.840960702861844378e-01,-1.384764795175561780e-01,1.616363213256010456e-01,-7.458298645550996697e-02,7.244176844709898644e-02,-1.311143911756932623e-01,-1.114972226109871983e-01,-2.078881690358944379e-01,-7.962594868829449279e-02,1.036055520967761080e-02,2.523958634842847215e-01
1.378248160056737837e-01,-1.484841433748901596e-01,1.184416945032029482e-02,1.816426162429573277e-01,1.365583151089853342e-01,1.622201607369624932e-01,4.193441175321732661e-02,2.050608443082146681e-01,-8.793277976909781579e-02,-1.236541181241778281e-01,2.099555310607768843e-02,-1.726736162199727642e-01,-3.666440789980110471e-02,-9.465345309072681346e-02,-7.787429846938102342e-03,-1.962943137426008122e-01,-6.807384667145527368e-02,-8.986127980661690051e-02,2.260722294045315883e-01,-9.199115704710257579e-02,-4.251075180899173238e-03,-3.963524464317656759e-02,2.271451950663065378e-01,-1.575310503757721969e-01,-1.362565468395082746e-01,-5.224262571049885506e-02,-6.274663376547107152e-02,1.214566942251989745e-01,2.717502845488837804e-01,4.067712171888763356e-02,1.386414288253550453e-01,-5.483594020514884204e-02,-4.293764856176477546e-02,-9.056868553185051796e-02,-3.866961235601475144e-02,-4.886355842808748351e-02,3.415039978355348393e-02,-1.581854558863694526e-01,2.371387476827778173e-01,-1.430179854474126488e-01,-6.108207377948557393e-02,9.095320970197325050e-02,-5.330526381255287771e-02,5.338682059991999192e-03,-4.683442316897316188e-02,-1.261668168622292197e-01,-1.569063344271413307e-01,-7.198863504253358303e-02,-9.788212162558112064e-03,2.439852618795167738e-01
1.781223586932016711e-01,-8.542699988721362547e-02,3.219985325319148217e-02,5.425211529257936011e-02,5.684109315462771567e-02,1.647199658640715325e-01,-1.596260584846906361e-02,6.275486171813160485e-02,-2.340120787830953647e-02,-1.570474936633379504e-01,2.644007333302601098e-02,-1.023266044966774230e-01,1.861338473809515462e-02,2.177576919253676815e-02,-1.082848139680887417e-01,1.062396284183786815e-01,-4.481898273048887105e-02,-9.594156406470563669e-02,6.865064067241119505e-02,-8.318077026993653256e-02,-7.897153225724047598e-02,7.036745470513926237e-02,8.392669707456022754e-02,-3.108650950135410929e-02,-3.457009747091017299e-02,-1.226072964942780119e-02,-1.531814332255698186e-01,1.166221821389047675e-01,1.338268908660604772e-01,-1.032329114694805205e-01,1.124420815250307959e-01,-6.339167863377864753e-02,-2.181546057038035169e-01,-7.033501551627922843e-02,1.408973362465799350e-01,-1.247123293360671847e-02,-6.069406482967588945e-02,9.245788693238088385e-02,-5.360901493438977343e-04,-5.332851148739153196e-02,7.909652631383831678e-02,-5.093710780684770900e-02,-1.637255145716249097e-02,-1.202220181148188488e-01,8.999340804117476889e-02,-1.513185542045473730e-01,-3.669976922400210867e-02,-6.157015967605512091e-02,-4.254423146355820057e-02,1.635335290849862511e-01
6.501490523993448678e-02,-5.349362682449689682e-02,8.839934890855227767e-02,1.093261751355609906e-01,8.498349554848406984e-02,9.390633635086738373e-02,-5.012623421096777665e-02,9.333652257906928373e-02,-4.093214242290860519e-03,-1.594434589461155571e-01,-2.644731262677456340e-02,-1.591131989162210547e-01,8.840214734864131063e-02,-8.910369462370455740e-03,-1.545231944798050594e-01,1.361171235896647680e-01,8.220160760992332311e-03,-1.044853128486257221e-01,2.488191476870139918e-02,-2.179943221680291903e-03,-1.217398792613098683e-02,2.432162944215156015e-03,7.974274314741612579e-02,-6.522869493317247358e-02,7.000370198076232009e-02,-5.103267788870190919e-02,-4.692760729964907951e-02,1.468252316245507727e-01,9.744973116007803193e-02,-1.898176727395575192e-01,8.746717320226249370e-02,-1.390081782610933826e-02,-1.337840678108001002e-01,-3.560953139053782412e-02,1.347145369615538879e-01,-8.960487194481198125e-02,-1.099949770130994736e-01,1.082367613295563691e-01,1.446359129069252000e-02,7.049862851439928080e-02,5.683905422578531402e-02,-1.285579979623647194e-02,-3.352753828862860969e-02,-6.928063343841893429e-02,-5.271389126289336216e-03,-1.292752674783706757e-01,-7.310618712658369447e-03,-2.824085341713392788e-02,-1.224047628582908553e-01,1.075583523922406248e-01
1.388359939932211629e-01,-1.449351601036173443e-01,-1.500862238090662319e-02,1.461787605521529809e-01,1.119599919452463205e-01,1.469691571872996649e-01,3.721151149784056311e-02,1.872791045558848122e-01,-1.000620018368544167e-01,-1.020021483170074766e-01,4.790968815440600076e-02,-1.281106776692521598e-01,-7.289381338989807391e-02,-9.622331848366087736e-02,2.910973379601992234e-02,-2.271932090625817802e-01,-8.445550687160899295e-02,-7.068022938128026844e-02,2.372699992662854473e-01,-1.116654905320624280e-01,-1.599151803291578439e-02,-2.875685771893096362e-02,2.042513384609347948e-01,-1.446766069432486590e-01,-1.785410714818138900e-01,-3.636369501675433547e-02,-7.980126319668172374e-02,8.553586972489557461e-02,2.615674354636552956e-01,1.037186649051421716e-01,1.148503174892198109e-01,-6.206364300011207868e-02,-4.441833972321904828e-02,-1.002624588670403272e-01,-8.574887272475822941e-02,-1.840717091689049456e-02,5.383863793786664714e-02,-2.033880017107605742e-01,2.382439835422899832e-01,-1.967853690539599076e-01,-7.557301830390328323e-02,8.614219870934311518e-02,-6.122455481532959598e-02,-3.841752124331739709e-03,-4.111576581453783852e-02,-1.108502886319336772e-01,-1.715981175991920515e-01,-8.869047531063407874e-02,1.630523796690488969e-02,2.285208737349868069e-01
7.560383408396530169e-02,-9.097160232948997560e-02,4.800991248931004395e-03,9.485295888106570761e-02,5.765599050174820273e-02,7.872160993808891005e-02,1.742566010607401322e-02,1.051306602579984845e-01,-6.333641931939636149e-02,-6.474345454739409422e-02,1.784419714550961739e-02,-8.441573108880459642e-02,-2.192200922550934655e-02,-4.801053106118052805e-02,-6.276751843718211300e-03,-1.016739604869878466e-01,-4.931284069992645375e-02,-4.982736234744165882e-02,1.226314641209685641e-01,-5.980603720016877678e-02,-6.616418148700953239e-03,-1.860770327200334320e-02,1.114604991666988537e-01,-7.969588269477004272e-02,-9.011992785132970363e-02,-2.968486930309226224e-02,-3.379694396643214555e-02,5.403661337108804641e-02,1.308423859315193949e-01,2.827516441442002801e-02,7.067807486639055004e-02,-3.490213245351891230e-02,-3.021291156681465626e-02,-6.804768528186683207e-02,-3.027470301186954010e-02,-2.576569863906805896e-02,1.748155575508835227e-02,-9.147325163812898563e-02,1.148667125185552362e-01,-8.609872791973481598e-02,-2.709809910027660002e-02,3.430798676038519790e-02,-3.467495264932703158e-02,-1.461040780109866717e-02,-3.259662704301701658e-02,-7.459769666944900124e-02,-8.466718657899796607e-02,-6.486579963408238558e-02,-1.399773617081550431e-02,1.335343597620417821e-01
1.014787551412845573e-01,-7.091624950116164061e-02,-6.973586275900255094e-02,-7.618494923714301840e-04,-3.577399224003429724e-03,7.527419572281077165e-02,5.087499133965733833e-02,3.000972828651345126e-02,-6.252489468837443831e-02,1.980693134116007573e-02,6.858175492830646813e-02,4.457837416938544711e-02,-1.102353348028070057e-01,-1.916581112922483357e-02,1.002837562243216740e-01,-1.753927769125565306e-01,-7.645933950242478350e-02,1.362150582928007593e-02,1.374812021360141134e-01,-7.291625611430070653e-02,-3.792721330322344764e-02,2.845332133575433770e-02,6.379588217005190132e-02,-1.384366719796500077e-02,-1.538488483095144521e-01,2.924295109548301005e-02,-6.951977158651749533e-02,-4.149068836803382343e-02,9.792009114218598598e-02,1.537199743181477951e-01,3.141222644562127048e-02,-6.968304170190661728e-02,-1.572924959998292863e-02,-4.963804371072984278e-02,-8.694382512898092552e-02,6.447906262474649430e-02,8.109754970648368200e-02,-1.309773125975760566e-01,8.893694696608990535e-02,-1.785220911732633142e-01,-5.210675651455855262e-02,2.407427239848072484e-02,-6.352321733540068280e-03,-1.194221639160372717e-02,2.365206950853344925e-02,-2.210827279131505341e-02,-9.730066362792698376e-02,-4.356567811038775107e-02,1.128056339376499045e-01,9.390040321775353083e-02
2.351292886477000105e-02,-3.286570235957275016e-02,-6.712296599496445082e-02,1.525793559594496723e-02,4.884011288625695994e-03,3.337147315460132786e-03,4.758016259397875730e-02,3.662039641539922147e-02,-6.659988343610374895e-02,4.426306659571506430e-02,3.756756596083387495e-02,4.336558898869221496e-02,-9.102282454221637120e-02,-6.466236075568443376e-02,1.171065314417114450e-01,-2.079631974957271145e-01,-4.078491843335050465e-02,3.137433197230819065e-02,1.054968514150901315e-01,-4.998234161308796192e-02,1.042341047521540623e-02,-1.828954687730591916e-02,4.341884900201551517e-02,-2.111190651096788926e-02,-1.300373737600425128e-01,2.251347760980807258e-02,2.136287514277530018e-03,-5.273771257589350558e-02,5.436704817877677925e-02,1.483741839895048042e-01,-1.867330468453329458e-03,-2.573240105959202426e-02,6.554236914241855227e-02,-1.659967085094070718e-02,-1.355449141608515429e-01,4.119468848477666340e-02,9.740418800326397508e-02,-1.704599425979585747e-01,1.133771881420860272e-01,-1.248948144860198284e-01,-9.343406468999471137e-02,7.337060990095717328e-02,-5.959778753050325867e-03,5.833028196258335102e-02,-2.258327234193708774e-02,3.487195369427436437e-02,-8.796747068978436057e-02,-3.216900479220863307e-02,9.486977933058761414e-02,3.702217802405000091e-02
2.741575707338786416e-02,-7.092777408112181659e-02,-3.958652476970830891e-02,7.438418513114847253e-02,5.320326763869642067e-02,3.952617869200814038e-02,2.607364338469354489e-02,8.625714543191967398e-02,-6.704057575528296620e-02,5.203968893105405391e-03,3.731937685650642961e-02,-2.839468470820532414e-02,-9.434266931391201150e-02,-8.887908044921978556e-02,9.218705041524248578e-02,-2.441818639560836834e-01,-6.225757068546527301e-02,6.779929885936432366e-03,1.554993013864133244e-01,-6.973171152937658601e-02,2.560063966556035825e-02,-5.503432998024661987e-02,1.165466662011048343e-01,-8.265373207851636761e-02,-1.510866758624924699e-01,-9.465731400930784897e-03,5.474466285164091006e-04,-4.608500573897611474e-03,1.374317383500343603e-01,1.475718290919916797e-01,3.647075048541273401e-02,-2.236904941456809362e-02,5.742297616084528905e-02,-4.812344234971394075e-02,-1.356745607849469681e-01,1.685657056546615087e-02,7.913469370064447894e-02,-2.085795897612535144e-01,1.877940872129972849e-01,-1.376647708915832991e-01,-1.035263852269211887e-01,8.934321938008905895e-02,-3.543096755889747068e-02,5.475661538284259944e-02,-6.484544010531002878e-02,-6.495085737123023478e-03,-1.110496008896049852e-01,-3.916094177359576850e-02,6.943942348013497357e-02,1.084982551093087999e-01
1.250935048653593062e-01,-9.656802558708060813e-02,-2.693378229887613898e-02,4.965220422958864510e-02,3.793756320696869272e-02,1.043912754483543176e-01,2.117542770522586743e-02,5.674526308711916323e-02,-5.030661573179383284e-02,-7.220581985935960179e-02,3.617674923899792672e-02,-4.236070320832979741e-02,-4.233137173045321139e-02,-2.063712954086864212e-02,-8.271120009263234138e-03,-5.518532036863250945e-02,-5.472379534146432772e-02,-4.793437692069246053e-02,1.147805827237614318e-01,-6.725408302009244776e-02,-4.077703651196302320e-02,3.779866545379987480e-02,7.623248348537985108e-02,-2.316743076295942408e-02,-9.958813307222122435e-02,-1.781892130485692328e-03,-1.009701480876735863e-01,3.881612143306914509e-02,1.127939132878832545e-01,4.550750153106918744e-02,7.755464937882579346e-02,-7.179309352760392116e-02,-9.477262440204206606e-02,-5.935915669557121493e-02,-6.110722511001138394e-04,9.003359478373650429e-03,1.635333500990114944e-02,-4.098986631057485036e-02,7.463896039901225798e-02,-1.184709315093826210e-01,-3.988902624747732613e-03,-2.049280283601348247e-04,-1.983895250935851368e-02,-5.253617812651086710e-02,5.069178270884727722e-02,-8.069097288481451302e-02,-7.478748624434955472e-02,-5.713895874670905234e-02,3.081098704796948057e-02,1.291062539645861096e-01
-5.364490016740794398e-02,3.926881392491426634e-03,-6.291319535894618342e-02,1.063745878687961249e-02,1.651593613329795833e-03,-3.615421335319188995e-02,4.623472892351283836e-02,1.671070789088461780e-02,-3.675853277938993108e-02,8.105031340433684062e-02,2.205354831501099913e-02,4.873749499723148415e-02,-8.993509737897108225e-02,-6.751002754901702652e-02,1.437559383084588693e-01,-2.315076282387213968e-01,-3.019452719035482791e-02,5.627671901791603953e-02,7.376842252905199682e-02,-7.991454734613793673e-03,5.043857487025791425e-02,-5.836277632333010390e-02,4.691638393689939734e-02,-3.680440010836562997e-02,-1.026165746526900291e-01,1.159782800627585063e-02,6.875868791330901064e-02,-6.409151141675162311e-02,1.680567330586176661e-02,1.696207229604030364e-01,-3.589888925709479317e-02,1.620379390609798936e-02,1.437475786644888953e-01,-7.489172398822888446e-03,-1.675489676721230170e-01,3.315899786747659311e-02,9.768463516123644663e-02,-1.912607612687950986e-01,1.139571964607621474e-01,-8.201089498179532644e-02,-1.118505560185577841e-01,9.266608613290237828e-02,9.363823768574069690e-04,7.823916554852791694e-02,-6.966650152481861091e-02,7.115700161047563976e-02,-7.653125234429790369e-02,-4.177705967492253286e-03,7.838434799822321941e-02,-1.157406752527780427e-02
6.406914066392904727e-02,-1.865849048753251416e-02,-5.676117913321903491e-02,-7.062606323600788272e-02,-5.556461250006693164e-02,1.924205747440334291e-02,2.512094753580099843e-02,-6.268230459977312818e-02,-1.421744373330655585e-02,3.605331005181706266e-02,4.247619998949390269e-02,9.176223397190300113e-02,-7.027666397579691859e-02,2.798993667272102470e-02,5.767325264078739661e-02,-6.029543500942053519e-02,-5.000298688682857512e-02,3.641256147637633722e-02,2.361390399995850348e-02,-2.994341667451703298e-02,-6.446155315954696374e-02,6.770780525429077878e-02,-3.880359256838957632e-02,6.396208465896432993e-02,-7.559915997039873270e-02,3.110742070343982743e-02,-8.295966307206747992e-02,-7.744253178453952557e-02,-2.285977775288251107e-02,1.001518552305922100e-01,6.447830046860649790e-03,-6.136898727072636478e-02,-4.800771673766642683e-02,-1.721215352075683783e-02,-2.035685680710153447e-02,7.466134937285132112e-02,4.305625673125642455e-02,-2.196170222598269745e-02,-3.723060591859776725e-02,-9.408729064654923480e-02,3.953469897950027089e-03,-3.120742031316795992e-02,1.702325178905195538e-02,-5.149826622861054110e-02,7.206838485215512347e-02,2.263485470220887030e-02,-1.570287726730646913e-02,-1.039027418455098530e-02,9.605944081729594908e-02,2.083465037053216715e-02
9.392907798326337321e-02,-5.484192254753327000e-02,-5.587364751073931046e-02,-4.676992398007243784e-02,-2.826820196204543958e-02,5.012170303054443860e-02,3.351345844849189237e-02,-2.855423571068823121e-02,-3.076908964363075580e-02,1.230471774967365622e-02,5.172262247313665767e-02,7.485109896116923234e-02,-7.772294647303039372e-02,1.805181731522638574e-03,5.549820468350568498e-02,-8.810694378493784396e-02,-6.522538938685677745e-02,1.929131442933646606e-02,6.398862497134136240e-02,-5.759548859772795071e-02,-5.779687906086281718e-02,5.372367355120679505e-02,6.898996753693746858e-04,3.932553412106244012e-02,-1.105580513147659538e-01,4.362929607815092120e-02,-7.537427287905179574e-02,-5.673163116570527353e-02,1.786071956111940848e-02,1.086300976387304384e-01,2.876238465174712697e-02,-6.754817514273409040e-02,-4.254169536259564538e-02,-2.509490501309118854e-02,-3.798821683162477425e-02,6.145624889607603086e-02,4.742630680213658773e-02,-4.081848921879558528e-02,-1.153936905557258891e-02,-1.321296885610509231e-01,5.820143466897256812e-03,-1.977640481536440883e-02,6.329800443424695409e-03,-5.002755133991839548e-02,7.486449038537487666e-02,-1.182404480184458609e-02,-4.252039133307557867e-02,-1.846014891081920045e-02,8.940895254513200885e-02,3.488430405734778417e-02
1.355218170646929066e-01,-7.882751545939771509e-02,-1.026618036300314674e-01,-5.093624137872295593e-02,-4.104160442445264900e-02,7.350117916790255279e-02,5.516702933924974572e-02,-1.623395055093455538e-02,-7.585197160265749750e-02,8.944985883502270391e-03,9.238023440764961403e-02,9.372407875254606946e-02,-1.323137463740564901e-01,-1.299637187741496322e-02,1.136115574273152407e-01,-1.830381830686619582e-01,-1.060183924985617782e-01,2.743927072531080966e-02,1.223321399367816031e-01,-1.011986136346451209e-01,-7.009759682533134306e-02,7.906565618878243218e-02,3.953796432683396450e-02,4.193568269345164523e-02,-2.051648307078685896e-01,5.460071825738917195e-02,-1.163384218911211465e-01,-6.969311491260045399e-02,8.423479710005758736e-02,2.112439434337783084e-01,4.621485277194364166e-02,-1.027491248911539812e-01,-5.095083009935800350e-02,-5.043180982606203233e-02,-8.223556007678346769e-02,9.797266236911805759e-02,9.866507671915360211e-02,-1.251077770577201376e-01,6.109354439431636391e-02,-2.227436999304604759e-01,-2.645844807424512293e-02,-3.747694467740254280e-03,5.201521500532105095e-03,-4.888533210955457037e-02,8.018158272976845524e-02,-4.116102972952230890e-03,-8.841376424404877310e-02,-5.772857218143378349e-02,1.442459385145783424e-01,8.847121017492011463e-02
1.509540757122716792e-01,-5.438013715776623958e-02,-8.014000511300456431e-02,-7.336479838270350273e-02,-3.743367707265514432e-02,8.671176938202966589e-02,3.593575767881848626e-02,-4.187228179870563366e-02,-2.846350936941780332e-02,-5.923870909788337032e-03,7.199743169181700708e-02,9.405533490085329906e-02,-9.846070659847576401e-02,2.336086726041506148e-02,4.696759131666541215e-02,-6.571844325016952537e-02,-9.379444150372800992e-02,1.022996798853008198e-02,8.841582719508955801e-02,-7.938738147629867403e-02,-1.031156039632677018e-01,1.062337652158699131e-01,-9.297266352277093124e-03,5.559075893407379454e-02,-1.443441136661990087e-01,3.943425900552854912e-02,-1.435464575525861597e-01,-6.400465254012442651e-02,4.424530483285196020e-02,1.292135927856248312e-01,3.923655044356306326e-02,-1.002350763654189236e-01,-9.880345707778293018e-02,-4.932913758322703124e-02,-5.555969355303719617e-03,8.814061818723556430e-02,5.338822443166570120e-02,-2.061914630481506000e-02,-2.124100499035964235e-02,-1.843853165965739227e-01,7.691410049626155702e-03,-4.521091983465849035e-02,1.336509258761732141e-02,-7.040304084043474964e-02,1.180472540498242601e-01,-2.280392035512185389e-02,-5.048848661187160802e-02,-3.230589250156353648e-02,1.199002888047385612e-01,8.614591072924437931e-02
3.033322372903492995e-03,3.582836127186457553e-02,-1.261069571595001548e-01,-1.668031652541318299e-01,-1.262902629431452151e-01,-6.898742724446425834e-02,6.599138809547287765e-02,-1.569337289791024326e-01,-1.164764313964908142e-02,1.643597854663258750e-01,7.787358327882544506e-02,2.402584634846139933e-01,-1.423241716721292682e-01,2.059666293516141181e-02,1.847816235996666279e-01,-1.433603994127536918e-01,-5.578646516814756567e-02,1.183762848417680702e-01,-1.487866906774719909e-02,-2.786794715120752622e-02,-3.412550564550313748e-02,6.817806811675808376e-02,-1.207206424933117556e-01,1.268373790328924389e-01,-1.400345708329815697e-01,8.245323217414848860e-02,-4.389433933065179511e-02,-1.987928960365654973e-01,-1.126224479993809119e-01,2.544443791164368585e-01,-8.933039914610076127e-02,-4.597825037372098994e-02,6.301263318916688894e-02,3.989746515884411322e-03,-1.275302071930024261e-01,1.420457503606342153e-01,1.090688777524386893e-01,-8.468577387498954501e-02,-5.861704314036669805e-02,-1.685747786324061637e-01,-2.403642942119797038e-02,-2.383683612045097572e-02,4.717278580473660554e-02,3.516231882896659298e-03,7.284650667796019330e-02,1.347785404121291941e-01,-7.787496210837703721e-04,5.381046673499871764e-03,1.860679161550143068e-01,-9.357367606468777743e-02
6.929900444839311169e-02,3.979338777162363255e-02,-1.849742571070238095e-01,-2.995117455311981369e-01,-1.957815662247460731e-01,-6.543936281724703485e-02,8.721727661938787068e-02,-2.360511438924457472e-01,-1.576900476795509501e-02,2.002798508247539133e-01,1.159518159039398533e-01,3.714818926259884080e-01,-2.251877979837666743e-01,8.872166184677204859e-02,2.412575972880560138e-01,-1.610950907525501852e-01,-1.126252783672415519e-01,1.627750180907527877e-01,-2.619906455893640171e-02,-6.805909621056430159e-02,-1.201302280250564208e-01,1.669352679637223502e-01,-1.908714675596056842e-01,2.463591127422893323e-01,-2.212175965649076093e-01,1.473324471524595503e-01,-1.340745625664441498e-01,-2.923516013148274029e-01,-1.622179863734660998e-01,3.716947694731916330e-01,-9.586159201050811762e-02,-9.947623269081383446e-02,5.968607593666226327e-03,8.946079701678108856e-03,-1.222069314737608825e-01,2.252233453645654526e-01,1.334189658134596612e-01,-6.112520138943606379e-02,-1.322310369350518655e-01,-2.384252496109097175e-01,3.427494531183060758e-03,-8.617382221592941038e-02,8.314914498505832086e-02,-3.510263746854193345e-02,1.814551207004132527e-01,1.595816431136418412e-01,8.878546858204336770e-03,8.191959116074240890e-03,2.942958885400508984e-01,-1.224925555531873184e-01
1.080966326337407801e-01,1.582452726915165725e-02,-1.724168464521431687e-01,-2.663259463706949548e-01,-1.867585428477100684e-01,-3.092855181092200173e-02,7.261257637267518050e-02,-2.169566740509973057e-01,-1.364512035822479548e-03,1.355328826062907055e-01,1.019983298805566402e-01,3.217354045651946715e-01,-1.808920592377428749e-01,8.405830694900923161e-02,1.826772873831906396e-01,-1.095527056123469373e-01,-1.115494263847572193e-01,1.169833312029318478e-01,-2.274388032561092815e-02,-6.925857347316397017e-02,-1.256324925083256716e-01,1.750848229174050696e-01,-1.752524465450056024e-01,2.280192229933190040e-01,-1.951411336932006024e-01,1.398399165357404883e-01,-1.500764672384755360e-01,-2.372120466555118490e-01,-1.326968083616446026e-01,3.007597965792577210e-01,-5.743218181940403649e-02,-1.044831392177388435e-01,-5.505717608772420918e-02,-5.369875397570931554e-03,-7.285096308582320046e-02,2.058612425896758635e-01,1.129782677295182447e-01,-2.627726530084351086e-02,-1.485156289723958967e-01,-2.256922555924666396e-01,1.844785071543517119e-02,-1.052891777580934052e-01,8.194949718432165131e-02,-8.764092891686187103e-02,2.150664097927586504e-01,1.018741240154847627e-01,6.998574763756018960e-03,-3.921328312456021092e-03,2.479922527477634309e-01,-8.078419690870367043e-02
7.844557429327685127e-02,1.255778112540169994e-02,-1.065024433132428505e-01,-1.889168638911732923e-01,-1.170904077998045079e-01,-3.031041265951246646e-03,3.386621304578107255e-02,-1.556758953158441927e-01,-5.018767411929733746e-03,8.274025905213509835e-02,6.005030916253867312e-02,2.171402615575650785e-01,-1.063468670859945564e-01,7.410745886893597978e-02,9.888617787347515897e-02,-2.687927805805293349e-02,-5.807485841631027101e-02,7.680575562495915720e-02,-3.409538890641741760e-02,-5.150827446117441089e-02,-1.093364306767150296e-01,1.320341282822723727e-01,-1.344915285254438819e-01,1.572567518479777993e-01,-1.214163270453119392e-01,8.279805371872779596e-02,-1.172703379048450900e-01,-1.586617900382030211e-01,-9.677492338766374713e-02,1.787298708985786688e-01,-3.829769713533472120e-02,-8.201043816933328845e-02,-6.051728345277159610e-02,-3.616497850402414487e-03,-2.679459681707264951e-02,1.370278067570199487e-01,4.995247078964214216e-02,1.305452839031177523e-02,-1.202409801571227843e-01,-1.489852828998131096e-01,3.119412805805202998e-02,-8.590132777213523030e-02,5.416573670892759623e-02,-5.190686133080786580e-02,1.459858203357551898e-01,6.151811950551776265e-02,7.568096081597945265e-03,1.499518626355050496e-02,1.602771422267405543e-01,-6.169665681169222288e-02
1.883593904732649149e-01,-5.086315736818592358e-03,-9.019525379921002062e-02,-2.305082817665407569e-01,-1.430336793833601461e-01,5.898410564943765838e-02,2.322315842264659896e-02,-2.022596832236696340e-01,2.536928987134966923e-02,1.002424366117790275e-02,7.819301086191425554e-02,2.156365965250317263e-01,-8.487580234593530837e-02,1.367886251350737825e-01,2.175538455326659487e-03,1.320472073356968035e-01,-9.070682832879295443e-02,3.761996689161815205e-02,-7.292178680102980037e-02,-6.632050974537512245e-02,-1.709652618679789460e-01,2.258692525124930406e-01,-1.603020380179580873e-01,2.158781832165067027e-01,-1.062048179967882283e-01,1.094535754152795859e-01,-2.327188540932550453e-01,-1.306586778158940199e-01,-9.954567300543716579e-02,9.853510282723593194e-02,1.515835587970990744e-02,-1.273256155394204003e-01,-2.403843451462008007e-01,-2.055408979438547515e-02,1.028268354276081070e-01,1.561142861717597918e-01,1.276602594314484550e-02,1.764363017150016588e-01,-2.310094910646735278e-01,-1.479039378793576831e-01,1.349823502890202254e-01,-1.785072088463654227e-01,7.315487278505973523e-02,-1.765883125423648725e-01,2.655204765055130811e-01,-6.848951720107096172e-03,5.366370485700879683e-02,-1.193025342666458564e-02,1.378998597724078734e-01,-5.204294600145578133e-03
2.461716351258265434e-01,-1.662653914516454626e-02,-1.346126731022828649e-01,-3.159409902045142715e-01,-2.064537920143854066e-01,8.109857571089039430e-02,3.397804476843105381e-02,-2.674249150435424882e-01,2.212727348919786563e-02,3.307479429824265738e-02,1.207314537009270966e-01,3.176945976399682126e-01,-1.483425900967977051e-01,1.905148446425139475e-01,6.715966217050625686e-02,1.001852077376608197e-01,-1.481145701917915836e-01,6.626998553946407411e-02,-7.285118115667493788e-02,-1.074019792898638359e-01,-2.251122553291498851e-01,2.980880273343033959e-01,-2.174560226849195366e-01,3.016774368950653207e-01,-1.655644607248453193e-01,1.502808144270993962e-01,-3.168402027454347847e-01,-2.041463115691103669e-01,-1.402056608876219856e-01,1.893380872142236826e-01,7.890411112650607545e-03,-1.700731465454782820e-01,-2.743734441509209643e-01,-1.911661069885054257e-02,1.172058832278077972e-01,2.516671212104139022e-01,2.129570593455745037e-02,1.927934173161775233e-01,-2.959207507302633600e-01,-2.284646306053556009e-01,1.573695420689846525e-01,-2.223892686436743094e-01,7.857785706384004532e-02,-2.307751586167845759e-01,3.524020078673177347e-01,6.304014551284543334e-03,4.689569332248544331e-02,-1.323222448908202738e-02,2.229612046106847489e-01,-2.268784605482790720e-02
2.128492993549016554e-01,1.222603809109905001e-03,-9.914248292988994682e-02,-2.502893021154713460e-01,-1.691845488861870028e-01,6.468919466176976940e-02,1.789440756346450875e-02,-2.176384342311393494e-01,2.087827115301228026e-02,1.540968062101027124e-02,1.138410355631327975e-01,2.725799982057743320e-01,-9.554121816578904636e-02,1.600057089835429935e-01,4.391013926132179140e-02,1.025566736995210254e-01,-1.060248965866150139e-01,5.177651834650868340e-02,-7.363799266584923620e-02,-8.925443556979532900e-02,-1.958471436249530073e-01,2.510766305543075672e-01,-1.811506971532138854e-01,2.477301984644359467e-01,-1.321101654112996626e-01,1.282432997134967390e-01,-2.503072173210202367e-01,-1.641345606501983800e-01,-1.099632203124365076e-01,1.598244668826818704e-01,1.195397643297919574e-02,-1.375607835152549141e-01,-2.371363309888358528e-01,-1.055615273318846054e-02,1.010509162437021324e-01,1.918582818515685018e-01,1.084386410748917375e-02,1.665856377607520533e-01,-2.435831902205970456e-01,-1.840493298586579340e-01,1.427177474879188779e-01,-1.870671698880207179e-01,7.681148571885823562e-02,-1.876614927152190637e-01,2.970112531851542004e-01,-4.364072018687623587e-03,4.906116380397491927e-02,-6.889399225173413813e-03,1.808628267734528339e-01,-1.355510548843511659e-02
1.275252657319302652e-01,6.409552183571093006e-03,-6.318066720123478863e-02,-1.646676080616827353e-01,-1.136307005186800168e-01,2.661583848945315439e-02,1.599738925041463769e-02,-1.488338931306694424e-01,1.987497901050077828e-02,1.175436574338824952e-02,6.060754537136753967e-02,1.713819326485145900e-01,-5.189775830016864211e-02,1.058339820413372601e-01,7.429230251902497334e-03,1.082370088765983729e-01,-6.169114942851833955e-02,2.801472756350308763e-02,-7.501251534492534012e-02,-4.796569114442218729e-02,-1.381489584344478549e-01,1.628256697890777260e-01,-1.455587081394551785e-01,1.771675914179751121e-01,-4.755690939590463684e-02,8.271450416848592779e-02,-1.493323686326634425e-01,-1.041376762023340646e-01,-1.003147491508822736e-01,5.333367231938429542e-02,-6.495038749182613369e-03,-8.040619981136037930e-02,-1.749569549712750582e-01,6.964377453197900976e-03,9.261922505773002856e-02,1.268157753028593682e-01,-1.024045332337856877e-02,1.517804992158134358e-01,-1.888012427159668771e-01,-8.327902237241106842e-02,9.888012390509091920e-02,-1.367914161281747198e-01,5.635058519264431881e-02,-1.304122117216549304e-01,1.910092770964635644e-01,9.636082381748610828e-03,6.695397555144828872e-02,-1.545475681426667844e-03,9.579488256653308220e-02,-3.349061866431739254e-02
9.731234803691310442e-02,1.923871854648040794e-02,-3.234371708365623571e-02,-1.461664526181944979e-01,-9.586626126740098452e-02,1.156642360927135314e-02,-1.883711182310428278e-02,-1.389391085635728607e-01,3.593816236056218694e-02,-1.196134603061659030e-02,2.874286238043319633e-02,1.366973314406587370e-01,-1.582943307361221047e-02,1.194583490070900006e-01,-3.258003474993599602e-02,1.525475624279372111e-01,-4.119551931665122596e-02,2.132171373853302895e-02,-1.053616705450216157e-01,-1.607242909243880233e-02,-1.182324726853021951e-01,1.256465092316935150e-01,-1.401954369301941783e-01,1.533381985672805647e-01,1.006204969319390331e-02,5.879554057336548734e-02,-1.311541280601910553e-01,-7.607585517571285871e-02,-1.111199401611816101e-01,2.490638835706794445e-03,-6.760226358147402616e-03,-6.244895200231632970e-02,-1.533625876881256345e-01,-1.545239886608079172e-03,1.088773135256192182e-01,9.380794499200668934e-02,-3.748061144100445913e-02,1.774149289224808690e-01,-1.939939697654127770e-01,-2.702978019079425864e-02,1.091779396662849871e-01,-1.401422579881989594e-01,4.175159090689858910e-02,-1.235576728261606333e-01,1.687042108403085106e-01,-1.065834990462777125e-02,7.843010285291400485e-02,6.808751219257569605e-03,5.524143834278421455e-02,-3.893040441517204436e-02
8.044929524663486931e-02,3.211795763770720208e-02,-3.519053993637737132e-02,-1.960823087924345176e-01,-1.238934348074102604e-01,1.721507347008931210e-02,-1.421207054739528040e-02,-1.787430361452870820e-01,5.248843883854718839e-02,1.158308686368489729e-02,3.147217731209531189e-02,1.552807496343431848e-01,5.982970623212902940e-03,1.351830297606910758e-01,-3.835158245211794242e-02,2.020840520777057170e-01,-3.486679052711380566e-02,3.406185573783179765e-02,-1.364466390817196950e-01,-1.381957552832337871e-02,-1.112643595168060356e-01,1.713195475061511652e-01,-1.758675444186317549e-01,1.830165335407263338e-01,3.871144595628797126e-03,7.388931912021805271e-02,-1.466550853002180355e-01,-1.010017150295748484e-01,-1.334572375665559196e-01,5.204792787992807042e-03,-1.751728120960623428e-02,-6.707797640821158702e-02,-1.863137577159464653e-01,8.518857935806608758e-03,1.318947439696601109e-01,9.581034601172255805e-02,-5.087405360465017956e-02,2.049945061254537237e-01,-2.330607937742669722e-01,-2.093328957432848830e-02,1.386901015374231161e-01,-1.570281399883865781e-01,5.681670149997728597e-02,-1.317060095510816098e-01,2.059528001853207502e-01,1.048105106516352726e-02,1.074506009653570932e-01,1.160020154487762661e-02,5.321233011826251996e-02,-6.502511393967440323e-02
1.768069632480096520e-01,2.957567648834215010e-02,-1.206888884762507552e-01,-2.985680834195614808e-01,-2.017304937172485213e-01,1.040506290734538250e-02,1.118618297027909950e-02,-2.605272361951246896e-01,4.316344633241240430e-02,3.883862220151754890e-02,8.798695431111880350e-02,3.030907841065283992e-01,-9.495396795799256051e-02,1.779586948705165483e-01,3.284882188433531358e-02,1.652405254861482042e-01,-1.023376988357451028e-01,6.229095020964386942e-02,-1.443664234993713713e-01,-6.077538392841691506e-02,-2.061306114151690572e-01,2.641244961091682719e-01,-2.347983097726471791e-01,2.891336132782983959e-01,-8.121569597825156750e-02,1.436931404612548646e-01,-2.443776095967772899e-01,-1.974133305851795972e-01,-1.879861893378120818e-01,1.283943227217172744e-01,-3.201560847971918200e-02,-1.242346585197246916e-01,-2.352410338133256174e-01,3.791459431672818646e-03,1.133709286299814378e-01,2.124702463544762554e-01,-2.565848839128688757e-03,2.144133579904053399e-01,-2.974196030036412863e-01,-1.338931094840427605e-01,1.589928557187324787e-01,-2.143655035672078768e-01,8.802049428749510185e-02,-1.873371176767894830e-01,3.127045189591933783e-01,2.803206420309743360e-02,9.339447062353156692e-02,4.920325288536511223e-03,1.792873854073475937e-01,-9.612400098556629635e-02
-8.804993273209171800e-02,1.114851629133332411e-01,7.757062058228647583e-02,-6.558714822644426401e-02,-4.871900200177586848e-02,-7.696075072115672600e-02,-7.235748679173301112e-02,-1.137115408674691658e-01,9.269097343413458534e-02,-1.185994609706086250e-02,-5.807357708105240907e-02,1.852052204315945624e-02,1.343477530930324571e-01,8.567557820638242727e-02,-1.115544284384715062e-01,3.042655031229339335e-01,8.000876640643009297e-02,-1.080571995956573599e-02,-2.203552280497406424e-01,8.856197584405861578e-02,-1.151045184918817431e-02,3.048488707902553829e-02,-1.365102612163739959e-01,7.624890947264235941e-02,2.244717522496635920e-01,-2.222518740316011335e-02,3.768104360629938310e-02,1.811313997652420557e-02,-1.758972548540243541e-01,-2.148878948283461654e-01,-5.873637886002506386e-02,6.447145367126710935e-02,-4.375760972748130723e-02,6.080690441906910770e-02,1.615643472674640202e-01,-3.744007018202499815e-02,-1.098978221494560786e-01,2.559473727142957955e-01,-2.183918530287569937e-01,2.381446598075522003e-01,1.213081053183028973e-01,-1.120548055816607824e-01,2.651010667516204636e-02,-5.025702134338336236e-02,3.736394391893360645e-02,8.956986155418400486e-03,1.522643809242176793e-01,4.687386405015938479e-02,-1.196498048482123322e-01,-1.422791912155165206e-01
-1.851288602397212213e-01,1.066091974029044903e-01,-2.208258923788256056e-02,-6.699813303954009480e-02,-5.328651469283942482e-02,-1.633143993058233101e-01,1.316202201228526894e-02,-8.106335682031418077e-02,2.381876835764158012e-02,1.362579198095087152e-01,-3.604879034508313984e-02,1.010616638287315655e-01,-1.202787761676491797e-02,-7.804964923011506808e-03,7.365818622008775407e-02,-3.971918739032842538e-02,5.616347953492052680e-02,7.883347817728331153e-02,-1.171954551470624495e-01,7.844127433894058921e-02,7.035110665022495380e-02,-7.833816687179705196e-02,-9.322940375213108199e-02,2.642578187262080783e-02,7.431728228920633783e-02,3.757513389270691721e-03,1.463934532893097218e-01,-8.290199211578591632e-02,-1.633624613244703261e-01,4.369177509872950588e-02,-1.301022745686285231e-01,8.161453731441278836e-02,1.789826035327979903e-01,7.246974411299203500e-02,-9.504258200177202742e-02,2.173101111652130015e-03,4.032122872209255998e-02,-5.489852580980429664e-02,-3.226578852765074612e-02,9.824087593098743132e-02,-6.310485387097823640e-02,2.874341462965235641e-02,1.438144057297465958e-02,9.722456115737457272e-02,-7.936161611226776047e-02,1.474067932286112492e-01,5.501906474129320684e-02,5.209838250504526119e-02,1.403763387776422317e-02,-1.834523741212313319e-01
-2.711977723989990041e-01,9.324980393970208614e-02,6.228691532682574528e-02,9.264793151056199827e-02,5.345248671074135510e-02,-1.530264191911753779e-01,-2.127980973392275960e-02,4.823412066316999647e-02,3.256449934401599300e-02,9.028762865931723447e-02,-9.976101719104224497e-02,-7.668246799596790952e-02,6.221277870470130061e-02,-7.578205718551800363e-02,3.167432586286674651e-02,-6.451580640776657938e-02,1.081476912726562628e-01,4.398403086973805970e-02,-7.609794772028115328e-02,1.152385486589997954e-01,1.590394427497044127e-01,-1.877612890189352957e-01,1.502627531212295114e-02,-1.014597756713057075e-01,1.383570203715669134e-01,-6.607624637491170405e-02,2.592973622902987607e-01,1.881308814818625705e-02,-6.465545315505934199e-02,-4.647014885112178001e-02,-1.098825997350943856e-01,1.302121182517439191e-01,2.674154222992997099e-01,7.154463286625660501e-02,-1.214236346338367772e-01,-8.498910069897705477e-02,1.345324251648370197e-02,-1.016018056936828923e-01,8.764117016911082692e-02,1.910965736900398504e-01,-9.527977687106327365e-02,1.207172965761335870e-01,-2.767266813254317184e-02,1.732554114206832918e-01,-2.253790504979041875e-01,1.083447038396793266e-01,2.577153143781128058e-02,4.276345446170729675e-02,-8.519713827869783429e-02,-1.375775925869611171e-01
-2.504137129379712667e-01,1.037532667691982713e-01,-1.737968096541038076e-03,-8.818488079997023957e-03,-2.186603323173224797e-02,-1.952824280597435236e-01,1.211962502793452999e-04,-3.862147921249249605e-02,2.094062420377482484e-02,1.370227415588673447e-01,-6.928729393090560240e-02,3.534908031783008664e-02,1.093874480581171794e-02,-5.658168704361007245e-02,8.649848554437729320e-02,-1.003962536546472023e-01,8.151844576856041857e-02,6.811022848759688830e-02,-1.157058591778215018e-01,9.659911714787740300e-02,1.365807017830188708e-01,-1.418875919332144575e-01,-5.418141691385930381e-02,-3.276758459544238528e-02,9.097145090979878723e-02,-1.443397032810946404e-02,2.262757519895452207e-01,-6.484561743265286615e-02,-1.466176715851117418e-01,3.907521043792566706e-02,-1.294937111012938458e-01,1.073300051005030703e-01,2.592488211411315691e-01,7.133435241245870972e-02,-1.381349280285577297e-01,-3.989305208993051272e-02,3.361643103101619873e-02,-9.092244219473534506e-02,1.371381296768631880e-02,1.351791320238007743e-01,-9.857865675406513040e-02,7.167055363257265888e-02,6.209357103894061307e-03,1.523743369418194549e-01,-1.539780774882036629e-01,1.527781416375323664e-01,5.660283797201894757e-02,5.353566790325782476e-02,-1.495799425508041042e-02,-2.011141725733507080e-01
9.994513285496096910e-02,6.607658653393319592e-02,2.222707315351869599e-03,-2.222240810701546498e-01,-1.424746427412230954e-01,2.085413837339546161e-02,-6.176639901456200399e-02,-2.261601058786819052e-01,8.600986872226934477e-02,-5.494734993415099911e-02,9.641778611724501069e-03,1.489079319497498277e-01,6.058857189934319792e-02,2.041589007511470377e-01,-1.339348112916279310e-01,4.077687206327072489e-01,-1.090796238376289147e-02,-7.132501683141324184e-03,-2.266283407311498743e-01,8.350565872710576446e-03,-1.608376586363071126e-01,2.099305668206795095e-01,-2.291040648305696925e-01,2.418533062215433294e-01,1.184638129407611790e-01,6.349975161471102525e-02,-1.813962663478178028e-01,-6.275203276486514270e-02,-2.044777917949439916e-01,-1.364314866706179685e-01,-2.703599036887094353e-02,-5.515089759981823408e-02,-2.948433091938288952e-01,3.131351405450426284e-02,2.717554004917230315e-01,7.843374999782226631e-02,-1.227782419940682268e-01,3.810640846612383670e-01,-3.665899259801804755e-01,6.842821516784096392e-02,2.251786533861679929e-01,-2.377561265303838323e-01,6.228701359158957118e-02,-2.093732232405811911e-01,2.546612262877944177e-01,-3.173887363578452997e-02,1.757348880471178987e-01,2.253341320158241609e-02,-1.059304828634431359e-02,-9.319676609682220336e-02
-3.219153360570285033e-02,1.736104730986246306e-02,-2.861622882535793527e-02,-4.888854420545613033e-02,-4.180998576236601844e-02,-4.001509124001254719e-02,1.226663026182760532e-02,-5.507158091257195048e-02,4.006553219943014693e-03,5.177804484043821431e-02,3.068947413937677792e-03,5.861433385429929560e-02,-3.712765859084684456e-02,1.418186405410825496e-02,5.326651006812330863e-02,-1.918742196161912078e-02,-6.443444566470712780e-03,3.110688866420685539e-02,-4.268001918465746253e-02,1.323978473050695310e-04,-7.206734742717180522e-03,-3.830770672472589167e-03,-4.290262018302516689e-02,4.226071353971701944e-02,-1.436587468654666570e-02,2.405619448465303248e-02,1.192687436777246403e-02,-5.629760955791646843e-02,-6.552527790505321970e-02,7.137263358688042403e-02,-4.285944174027091214e-02,-5.886806937907143079e-03,3.423934171494422141e-02,1.721595967488150775e-02,-2.979453624060491787e-02,2.521958454382574114e-02,2.413965267961751954e-02,-3.335965663000724831e-03,-3.443242276958804332e-02,-2.701150683875049724e-02,-7.175283599302616395e-03,-5.056074446669231795e-03,1.025284598997896340e-02,7.947507610361321737e-03,1.546065530022015279e-02,5.039128557917022661e-02,1.200457187731110952e-02,1.194155919918564283e-02,4.956413521102099456e-02,-4.928998110246454734e-02
1.894650759456156519e-01,-3.668921011273387073e-02,-5.655039275155814005e-02,-1.513697406394416689e-01,-9.304466091852965637e-02,8.171527819018907512e-02,5.034385702791820127e-03,-1.396181602906842456e-01,1.965911825716989622e-02,-4.015439020446043283e-02,7.224993115574304681e-02,1.483588816804473354e-01,-6.144355589589872019e-02,1.141747419528205271e-01,-1.356781847193261684e-02,1.341385699793619379e-01,-8.564414380703139207e-02,2.709414272683346222e-03,-3.674479345622668619e-02,-7.211256764020743115e-02,-1.541661779443352920e-01,1.826960632172297538e-01,-9.571825454151952628e-02,1.604282166616265715e-01,-9.152367062618815829e-02,7.437958845446455969e-02,-2.087382304659297916e-01,-7.518336408914839952e-02,-4.233548540901926199e-02,5.210362606319427631e-02,3.723958957821060095e-02,-1.186860993102799161e-01,-2.340191571376971369e-01,-3.618056365119365347e-02,1.232947206500249332e-01,1.196269775156927478e-01,-2.009830771381119346e-02,1.632120265660494951e-01,-1.695651297177101779e-01,-1.289541440223916924e-01,1.230209948660363761e-01,-1.558610541273615369e-01,3.032235954812950371e-02,-1.738834863209036130e-01,2.246328752561214392e-01,-5.138381068874903895e-02,3.780829222823602759e-02,-1.891750337053414374e-02,9.680156705921319493e-02,3.292151124701606785e-02
3.155982906670760646e-01,-3.833381136382763010e-02,-7.414922167127584174e-02,-2.830179070367113137e-01,-1.829656193728692870e-01,1.387727798369870480e-01,2.191239771743175215e-03,-2.530575780280606701e-01,3.326134466506540377e-02,-6.812039135915862187e-02,1.092872852572234210e-01,2.360099708233686921e-01,-6.646637365067518954e-02,2.369861587456268959e-01,-6.443840292359352684e-02,2.745142176949069146e-01,-1.137525952518066708e-01,1.067406321538331461e-02,-9.247793012849163385e-02,-1.080937959683043875e-01,-2.625387521178964567e-01,3.375778798136811476e-01,-2.204711611284758954e-01,3.071201768300375057e-01,-8.577007374509419690e-02,1.424289918552033851e-01,-3.661564907253712087e-01,-1.067312833498713087e-01,-1.086051293671031898e-01,4.484640411561487128e-02,4.097532301422222856e-02,-1.864286011426218304e-01,-4.185738891087784630e-01,-3.917836822346983106e-02,2.458444412319110706e-01,2.054367449268759138e-01,-5.437768122322151482e-02,3.336271373133783968e-01,-3.439122457671949240e-01,-1.655359847537021256e-01,2.397757160507358321e-01,-2.854697088851750331e-01,7.529427074062630676e-02,-3.015831171607617489e-01,4.071956161039335664e-01,-8.371641205240991368e-02,8.925136353614816775e-02,-1.662996010649410786e-02,1.363533758793831208e-01,3.583559235679679295e-02
2.360102773714724267e-01,1.915898928575385067e-03,-1.441900000415338445e-01,-3.229140451630355679e-01,-1.991308174617853199e-01,5.486987460079146423e-02,2.595049226837620529e-02,-2.746619582046610497e-01,2.698098470369080654e-02,4.516165786952539701e-02,1.335646068589214364e-01,3.389090102278228267e-01,-1.461529629840000455e-01,1.837391066011274665e-01,6.356123682030906386e-02,1.054875781345143843e-01,-1.302351990472704890e-01,7.544824386185960963e-02,-9.094569862756757272e-02,-9.504459134514989249e-02,-2.292003602650944660e-01,2.863454551770260315e-01,-2.330832863827613233e-01,3.137493305483798345e-01,-1.522793733878659295e-01,1.548800309794121643e-01,-3.040434695204204951e-01,-2.226857466464354229e-01,-1.555772497150622047e-01,1.859925088766674062e-01,-4.956047253739479831e-03,-1.697699542013219320e-01,-2.748533743312425170e-01,-1.308667778492053624e-02,1.034842275160851588e-01,2.351062987868442755e-01,3.166954543028888125e-02,1.891958335163120009e-01,-2.929565147328281882e-01,-2.178311490732660338e-01,1.574115004590553035e-01,-2.229862500743225173e-01,8.916079460994838501e-02,-2.140349367983292173e-01,3.468812872332441288e-01,2.227171517961855016e-02,6.407909881216508619e-02,-3.679128632148599351e-03,2.206233082215924568e-01,-4.501256419186693003e-02
5.240823659228380921e-02,8.429916213927882152e-02,-6.851865657349910654e-02,-2.502956256080362540e-01,-1.883306442987121299e-01,-4.934495949910534113e-02,-2.306658781923695556e-03,-2.500655215196043168e-01,5.253515309986343806e-02,6.733893173197498527e-02,3.732885265871729169e-02,2.468709755586036558e-01,-3.338041291553076745e-02,1.629854996018601232e-01,1.064099121233360278e-02,1.906394481582062428e-01,-3.934422932899751812e-02,7.030567090520471740e-02,-1.726624950292902916e-01,-1.467245975976182951e-03,-1.373546341114221525e-01,1.863168494783009888e-01,-2.444381892250369059e-01,2.390950839585071486e-01,1.420711194646059536e-02,9.758245795954881285e-02,-1.394851527383255130e-01,-1.643666192647994517e-01,-2.223251098176864671e-01,3.901689106204794810e-02,-8.058260233594161104e-02,-6.253058587725870976e-02,-1.458595361357949149e-01,2.743233479470128314e-02,1.020899127139887202e-01,1.404114599593654644e-01,-3.291416163830000047e-02,2.120768972388976659e-01,-2.870888795009635119e-01,-2.175267343887979724e-02,1.292183220930797072e-01,-1.858856484319048041e-01,7.657108445996398116e-02,-1.231213151135102934e-01,2.100040342522997983e-01,6.715823758653050035e-02,1.255132900540903429e-01,3.689799513715995294e-02,1.017808434849904742e-01,-1.532851089377506026e-01
2.407681033959015518e-02,7.435691289180564045e-02,-5.814002562141961511e-02,-2.431315748407310018e-01,-1.581905941582356923e-01,-6.443182852492322643e-02,-5.641498587100997157e-03,-2.311267733248347778e-01,6.739298073929525512e-02,5.360957909320623882e-02,2.780964470070469707e-02,2.213042208985205594e-01,-2.300926728514519209e-02,1.332035300535072131e-01,2.615310967247166940e-02,1.675338517031859653e-01,-2.126128367344027811e-02,7.207709553606629627e-02,-1.873413407443039747e-01,7.115327208790172067e-03,-1.014205062783568589e-01,1.356801947232197936e-01,-2.358828351910792487e-01,2.116607375249698608e-01,2.155008674104103017e-02,8.127028570676896047e-02,-9.748313297103385067e-02,-1.499550268881641446e-01,-2.250925175946890122e-01,2.352583445921658037e-02,-8.836782871078775747e-02,-4.416372591377380058e-02,-9.895938211963739572e-02,4.396982592739252099e-02,8.169846191758324550e-02,1.148566387590204407e-01,-2.480100701980156655e-02,1.850174983310579058e-01,-2.647670224208647505e-01,-1.082002349566408683e-03,1.049940586956258082e-01,-1.494739385281812494e-01,5.714891230832020580e-02,-1.129151901035120170e-01,1.667778522765014093e-01,6.335453336585450401e-02,1.265975663383258065e-01,3.384656907889865146e-02,7.346916291103969265e-02,-1.536645079922611679e-01
7.936046029017562731e-02,-6.236821776285484710e-03,-8.895665487212675582e-02,-1.286728731524879599e-01,-9.299978880177182938e-02,4.185388175510700547e-03,1.533710885470439440e-02,-1.058312792328718749e-01,1.619331627045660776e-02,4.020798214277059024e-02,5.772325329431424873e-02,1.421263850550120722e-01,-7.262798527834614382e-02,5.759069714184994471e-02,5.482360449544908254e-02,-2.661949135114213133e-02,-5.905676622401947323e-02,3.019299617612167599e-02,-1.670898122387313306e-02,-3.608650398910300677e-02,-8.333552677526684382e-02,1.044539328673965706e-01,-8.720668034274701996e-02,1.137270604111307731e-01,-8.676853598268968737e-02,6.913160101387016976e-02,-1.040034104166674550e-01,-9.639261454978130528e-02,-4.744660758602203821e-02,1.158262428071206579e-01,-1.297959420443904263e-02,-7.277003320641890760e-02,-7.490460976036618368e-02,-1.047010735635316332e-02,2.093662732711592395e-03,9.924475864755069598e-02,5.213991737266851501e-02,2.310656881672556659e-02,-9.782289774139531213e-02,-1.060937932564570002e-01,3.008690574793603315e-02,-8.230605468613701181e-02,2.893260272712333547e-02,-7.272448728184498223e-02,1.155096764100659174e-01,2.256054225968201835e-02,6.402767456061747575e-03,-8.947415533359738549e-03,1.104508364453507530e-01,-2.823486211339607671e-02
1.475195477161932445e-01,-2.855616969290751539e-02,3.337924428956774714e-02,-6.508640505268517562e-02,-3.813553120980010813e-02,1.048820244280398856e-01,-3.748020165789891361e-02,-5.868981746451149700e-02,1.470357556380110647e-02,-1.234587210883005409e-01,1.927663483131681829e-02,-2.343640369057270120e-03,4.225674583459170658e-02,9.937351934816839039e-02,-1.423445549923789688e-01,2.430750780967518843e-01,-3.285549916238503926e-02,-5.675034818280971088e-02,-5.686040205364709804e-02,-3.406171877824284988e-02,-1.091870189374019307e-01,1.337058672596652675e-01,-4.611195177294004355e-02,8.930130020623917864e-02,5.050610078097474143e-02,1.559432585499322295e-02,-1.785684887698785195e-01,5.316315471300053080e-02,-5.587563568888376762e-03,-1.415154486691274638e-01,6.767704789624078010e-02,-6.646804804574807379e-02,-2.465547729856993608e-01,-2.251734003510864890e-02,2.126547348259878456e-01,2.399482862509728920e-02,-9.979453708706725878e-02,2.293439931238809293e-01,-1.605946485636361720e-01,1.729102004062120588e-03,1.339859519761138762e-01,-1.404044047552293895e-01,1.098283769429687397e-02,-1.681484760522958533e-01,1.622085194507471295e-01,-1.172217469614095231e-01,4.360320028205363907e-02,-2.580519044864802367e-02,-3.922624201895891921e-02,6.110625013042699644e-02
-2.957268176240099994e-02,3.298862062011890389e-02,2.424167646262840106e-02,-3.409272869210515713e-03,-1.216904907459683341e-02,-1.813693831416436641e-02,-2.700227071017105573e-02,-3.029669002868956920e-02,2.109818368832184696e-02,-3.241814797085697253e-02,-2.905027928915021596e-02,-2.852151380727825300e-02,4.757522726983309108e-02,2.136464531098371950e-02,-7.135460223180661865e-02,1.330767329077116035e-01,3.390874823990559783e-02,-2.064638715798251117e-02,-7.787283063907456115e-02,2.101328328805850132e-02,-6.376640587641153012e-03,2.341466595221510048e-03,-5.144734644170903537e-02,1.997315251826840138e-02,7.490257608436907966e-02,-1.003046360619798752e-02,8.515953731258905576e-03,2.540336896373287731e-02,-5.816333728807036862e-02,-1.071430584063029351e-01,-2.263372447774677707e-02,1.500588840770423864e-02,-3.381895539046537308e-02,3.855263929830756060e-03,6.972472573373797444e-02,-2.916871038349539910e-02,-6.229115762606079326e-02,1.043552446864426941e-01,-8.495463288773644206e-02,9.472603555010228327e-02,4.294864333126274802e-02,-4.265505549937890356e-02,-3.590663691873223224e-03,-1.461533516446533038e-02,1.039163158525345868e-02,-1.368772057123841986e-02,4.490799984956220930e-02,1.306815990981051792e-02,-5.864446498843775557e-02,-3.878598381089023300e-02
4.840788239294110951e-02,-1.244685379903121870e-02,6.342850628222544696e-02,3.351789986072868655e-02,8.864585084316563626e-03,5.206107400541132996e-02,-5.217336263855968520e-02,4.766303184368133120e-03,3.078514049866922994e-02,-1.028709413601543998e-01,-2.626094748079794636e-02,-8.312952803473358521e-02,9.206343679897627252e-02,4.770306656732590384e-02,-1.441615908233178922e-01,2.218964011636316014e-01,1.884013265854676822e-02,-7.708257326185059821e-02,-5.808912437027601711e-02,5.932579490620226194e-03,-3.129845636643761864e-02,3.489348704433869325e-02,-1.248884052918130920e-02,-5.842962609094384460e-03,1.154464447614387684e-01,-2.933240921265651419e-02,-4.095784295924068813e-02,8.582486652235635227e-02,-2.651480194500158063e-03,-1.820370677781472657e-01,2.608096842404488899e-02,5.360907016005833203e-04,-1.357859459890514986e-01,-1.189834430606141313e-03,1.723910977785649556e-01,-3.599393294743429006e-02,-1.034494586780912162e-01,1.854501342111919415e-01,-8.850414252273650084e-02,9.883364241580785969e-02,8.177900600194885905e-02,-7.034891916234306541e-02,-1.275808664575697748e-02,-7.959259953309312519e-02,4.347487324772262435e-02,-8.666579696528373122e-02,4.973537606889662233e-02,-9.285687391698618787e-03,-1.065396623795790837e-01,2.649858377790067707e-02
9.011463516802653562e-02,-1.823770421092325020e-03,7.369757034692127340e-02,5.711483035974483646e-03,3.402297310691282904e-03,7.095799372925008786e-02,-6.082527069470489850e-02,-1.831719809875358151e-02,4.122281327448170524e-02,-1.233268123314485432e-01,-9.709282557457746266e-03,-7.308549348862522499e-02,1.068001598289667065e-01,7.062473007458931751e-02,-1.648964115132972585e-01,2.816672614039865130e-01,1.862537503698475164e-02,-6.863621364699011573e-02,-8.420895450667548188e-02,1.947112813609486182e-02,-6.894029158887948761e-02,6.483078109797600630e-02,-3.621899043553052783e-02,3.184978225331088625e-02,1.164009802403232346e-01,-2.209713804397557893e-02,-8.782292897550293687e-02,7.636339958354976254e-02,-2.038817696643833305e-02,-2.186161805680267023e-01,4.589338473804496082e-02,-2.142650405398519031e-02,-1.861664096939544821e-01,-1.373162541812808675e-02,2.017806278497213668e-01,-3.471623601236712570e-02,-1.274003578262142555e-01,2.439764880972444816e-01,-1.386490523217578930e-01,1.174870211428312994e-01,1.234215453985603589e-01,-1.034009602378029996e-01,7.566936776722254024e-03,-1.267375822156867060e-01,8.145549110865861475e-02,-1.057841375476743645e-01,6.898000425352666942e-02,-1.035214875601211948e-02,-1.071842182514530645e-01,3.870809867549188793e-02
3.595437773768517947e-02,1.815561479787271282e-02,-4.138878785192677545e-02,-8.972177301330597210e-02,-5.736416288785015083e-02,5.887681040366518501e-05,5.345874980473441611e-03,-7.460190390193909005e-02,1.005648887466742934e-02,1.168610986721811684e-02,1.757901145429205739e-02,8.160533629814878398e-02,-3.477200027960308110e-02,4.596844150946192281e-02,2.091624420507733409e-02,4.407549713589954676e-02,-1.723974847794478710e-02,2.204199673842046833e-02,-4.975914709041396461e-02,-1.750920513734169348e-02,-5.685871941462304624e-02,6.885330939709427556e-02,-6.899274875587398104e-02,7.575297469136367534e-02,-2.156241304615524185e-02,3.571254735304393857e-02,-4.864767334586269504e-02,-6.921597691183997703e-02,-5.383901334226359053e-02,4.283377374947432148e-02,-2.927119872169492779e-02,-4.937009736455149483e-02,-5.935250484865276649e-02,4.165152694619407223e-03,2.116203027264331946e-02,5.538647578548422379e-02,-2.856631054839364487e-03,5.358934803850363277e-02,-8.213307170040040628e-02,-4.456396663865144769e-02,3.527225746927468292e-02,-6.456250622348792823e-02,3.231617339896769581e-02,-4.693273790085126379e-02,6.378867003926035062e-02,-1.462155965197185986e-04,2.708369796448203276e-02,9.893336181462339049e-03,4.566509143037988244e-02,-3.686552829658281544e-02
-1.068749216370490085e-01,3.616839357912106367e-02,-7.639929980714224578e-02,-3.562084480903220801e-02,-3.861622918858755721e-02,-9.852397001364818219e-02,4.775710084881172601e-02,-2.913597688465064534e-02,-2.738219461479128591e-02,1.318832460121820704e-01,7.923484639138062523e-04,9.350127028169595567e-02,-8.022476326825939141e-02,-6.140279800777580232e-02,1.584277336889625687e-01,-2.140235734478660168e-01,-7.515505777953753949e-03,8.907795016462245752e-02,1.808069041174722655e-02,1.317912317469369793e-02,6.666380025638196649e-02,-5.892289284543968109e-02,-1.105114594452840521e-02,-6.473415629827740901e-03,-8.966055985798149219e-02,2.016452762362775861e-02,9.094957158484623383e-02,-1.185148035504159647e-01,-4.719176248019344572e-02,1.695406251887102422e-01,-7.465900892049005810e-02,2.028208546025786832e-02,1.866370949569436666e-01,2.488038369255853033e-02,-1.766754816944839379e-01,3.869807942695917963e-02,1.004888887228975597e-01,-1.920692156704342790e-01,7.686513549180691574e-02,-4.960988001725408214e-02,-1.075202641097625922e-01,7.408546262125205450e-02,1.733390694246819989e-03,1.101702886384641616e-01,-9.015950719673831992e-02,1.205524306407521340e-01,-3.869319833450751006e-02,1.556253759846308593e-02,9.187520900709138238e-02,-8.334855033788965417e-02
-1.148751862904698606e-01,2.750458353247537194e-02,-4.977643989361917043e-02,-1.150875376608266089e-02,-6.403764500698174052e-03,-9.962108595661695043e-02,2.402538938995545104e-02,-1.668200627697704816e-02,-1.126785229985573233e-02,1.044573597829384082e-01,2.969750020092258320e-03,5.542687385347416784e-02,-4.452271610739756691e-02,-4.515333471896321171e-02,1.153595257147530806e-01,-1.628124266844155343e-01,2.310391060944510903e-03,5.964597462090860669e-02,1.146347572373538660e-02,2.041409603014402926e-02,6.596723866713712081e-02,-6.856376807266069406e-02,-1.176440101409971517e-02,-2.159453586269207900e-02,-3.695512473272868914e-02,4.029854284030761832e-03,9.909358587498043325e-02,-7.318960962224978217e-02,-4.123761501056884965e-02,1.050815672123302791e-01,-5.883661003397159389e-02,4.159636277386270092e-02,1.707916173432793283e-01,2.325979178817996762e-02,-1.494201349370444520e-01,2.174072715252552482e-02,7.361015703361274698e-02,-1.281648798393152655e-01,6.868883813457837828e-02,-4.314184611041656063e-03,-8.816018598415438501e-02,5.581403928677095699e-02,-7.339206407286932941e-04,9.117587581899275206e-02,-1.034071196235354650e-01,1.016900865798816694e-01,-2.303546059247753644e-02,1.418119320761749430e-02,4.352129329471068897e-02,-7.981793145978997861e-02
1.038487664121745396e-01,-4.959917472286136386e-02,-4.558299956169181016e-02,-3.059165292991231425e-02,-6.739273324588348872e-03,6.569599319499402901e-02,3.017715718124473409e-02,1.771329080206097495e-03,-2.789384780479186449e-02,-1.817114642901526689e-02,4.850735660463166565e-02,4.472339977392748162e-02,-7.347538213319161626e-02,-1.170892361423917904e-03,4.357010233768075780e-02,-7.610404440161926132e-02,-7.337771701201792340e-02,-1.134033594778027787e-02,6.862298463515867364e-02,-6.467647836864474920e-02,-5.290693908579817417e-02,7.486019397223235561e-02,1.178395714989558668e-02,2.153006530632333576e-02,-1.131089367611443491e-01,2.449309492840519992e-02,-1.103992499814974021e-01,-2.397915363548034154e-02,5.773782181979185413e-02,9.721084818141478845e-02,3.857865714433822424e-02,-6.331095275479946272e-02,-8.026113873117973752e-02,-4.623596159625222718e-02,-2.133625603741337584e-02,5.371359950087225416e-02,4.236097132326177572e-02,-3.394527954017760585e-02,1.682366940463951924e-02,-1.302731521772565459e-01,4.902330465945020296e-03,-1.468489207998948526e-02,3.840661939870698184e-03,-5.494223830100035399e-02,6.336420592381972194e-02,-4.397588836468772217e-02,-4.394070061698045204e-02,-3.460808061193311469e-02,7.903883823927702890e-02,6.922618051599049860e-02
1.539787258171903539e-01,-1.211983890811288156e-01,3.822021469226755640e-03,1.053297484131619083e-01,7.259920757968452154e-02,1.510817533518756806e-01,2.334899667913418325e-02,1.095887699199399323e-01,-7.007804849844645467e-02,-1.056198145097604069e-01,3.342873105238832604e-02,-1.090304904516598838e-01,-3.343005642638340741e-02,-4.392086081435094685e-02,-2.903627069696453761e-02,-6.852149214087289997e-02,-6.955512082042912547e-02,-6.389272160044763560e-02,1.722974293896313014e-01,-9.318706650028336924e-02,-3.483333129533084521e-02,4.279970106383851336e-02,1.406062057804618182e-01,-6.691749360736785890e-02,-1.230941201005429780e-01,-1.771186395664587146e-02,-1.127132922602537696e-01,9.001774704397402793e-02,1.949552918774848653e-01,2.543249021085053005e-03,1.345708712181907518e-01,-7.536312960779342762e-02,-1.133314808881336483e-01,-8.451923402324998391e-02,1.793808107092177001e-02,-3.122474966857067581e-03,7.671991235141791855e-03,-5.915266055398492318e-02,1.255643143774657355e-01,-1.323743095639087486e-01,5.788740954938338158e-04,2.376526381947622821e-02,-3.030639157214764026e-02,-4.970051881940155264e-02,4.069921341466305881e-02,-1.365612595247495120e-01,-1.052940238691702224e-01,-7.232096714459626541e-02,1.113875633987211101e-02,2.031486594886482144e-01
2.090675211659279165e-01,-1.403845440295781455e-01,-9.077069758439909597e-02,2.180553038578155259e-02,1.805250583134525300e-02,1.565859111422325256e-01,7.951458745045086873e-02,6.470197344263634021e-02,-8.585287901793432763e-02,-4.989280141340527580e-02,9.851938045948947786e-02,3.363934410580375622e-02,-1.385642397095782352e-01,-2.803169819215705141e-02,8.703075157306953968e-02,-2.183634827128462796e-01,-1.357453872171521247e-01,-2.403598411261438639e-02,2.047443604077452128e-01,-1.442661705218742652e-01,-7.958671649215230681e-02,8.105652461131807041e-02,1.069459940813066445e-01,-2.831740403449029345e-02,-2.473860113891430401e-01,4.948982607421066604e-02,-1.664302985095329201e-01,-2.077302922113361330e-02,1.851960725761257198e-01,2.090031569641007114e-01,1.141912676238677621e-01,-1.225951213404674611e-01,-9.593598586503300496e-02,-9.633413720063052632e-02,-7.902260120778090147e-02,7.650279931537236344e-02,8.342052346139701424e-02,-1.449353939152936144e-01,1.310056829003783951e-01,-2.989684297073165187e-01,-3.130647522931931381e-02,2.534932928769251942e-02,-1.048779230004026272e-02,-5.735215460341036575e-02,8.712149000049483616e-02,-6.648653686212849245e-02,-1.436065546402242876e-01,-6.709779685961289597e-02,1.540901913367874743e-01,1.996014862444113469e-01
2.342395566276723670e-02,-9.764356253019505771e-02,-1.192358048714317192e-01,6.231437573729689539e-02,3.622067946197492228e-02,1.560776648261302628e-02,8.168861678374382540e-02,1.132221231560473079e-01,-9.450669665413748144e-02,9.508793164593820624e-02,8.062412695189977163e-02,4.612442501149842389e-02,-1.875473301250797642e-01,-1.299186644522480061e-01,2.345229032936497482e-01,-4.557834660473400468e-01,-9.622674142461966340e-02,5.978990957458488881e-02,2.464464002178401447e-01,-8.943001281713214290e-02,5.657622248515475905e-02,-7.342344630848894604e-02,1.418693506896632206e-01,-9.697325789076577385e-02,-2.764995601711151552e-01,2.152987113703346694e-02,3.981404712972769211e-02,-7.269290487085053321e-02,1.622733910288086667e-01,3.281762905070210734e-01,1.995676911032395404e-02,-3.946887901108804553e-02,1.940610024831943281e-01,-6.078431770044935567e-02,-2.921842169767730479e-01,5.140337816764644491e-02,1.936355404690179582e-01,-3.913987590393488980e-01,2.815437368171951893e-01,-2.659064644557581625e-01,-1.897434563679890607e-01,1.790917241708378516e-01,-1.480753633274177125e-02,1.196471850495422484e-01,-8.871679552186791107e-02,6.428292285369011094e-02,-1.813826677482494043e-01,-4.498734104043040916e-02,1.728432006236475527e-01,8.964216820386479434e-02
-5.352153090559225168e-02,-3.909529805254174928e-02,-4.703904451899436345e-02,8.467596560293944030e-02,5.106997590767635431e-02,-1.245097344737485824e-02,4.775019099528641370e-02,1.017812464466381350e-01,-5.928033025574905301e-02,4.830998693304800612e-02,2.455231120655400334e-02,-2.537695816138176713e-02,-7.411820609343286459e-02,-1.122303982697231001e-01,1.261218843023915737e-01,-2.934616812611073322e-01,-2.234433476928707890e-02,2.399223510940488857e-02,1.413945393349327617e-01,-1.611043536573390431e-02,7.474133187338782847e-02,-9.957964488727658048e-02,1.220850120092313307e-01,-1.064673572784963912e-01,-1.238281727317964848e-01,-2.715106669368082259e-02,7.312633681216340609e-02,-8.864801329107837614e-04,1.080667726910864990e-01,1.575075657016293817e-01,7.405110945825908383e-03,2.373501348516822082e-02,1.707912148966561905e-01,-2.625856755387047381e-02,-1.856200871592980917e-01,1.731535744534179726e-03,1.066337338915877009e-01,-2.569419493165994162e-01,2.074077582409467324e-01,-9.152402503350630381e-02,-1.422066182588205274e-01,1.297144986168313474e-01,-3.416449637853718330e-02,1.143314881202752431e-01,-1.219213157661764579e-01,4.931696913127413956e-02,-1.146332443627887804e-01,-1.063236115537987206e-02,4.947005166971133600e-02,6.046467065297790600e-02
1.484342933667058204e-02,-4.472153950946036738e-02,-9.953437512991825109e-02,-1.666879880550672238e-02,-1.273432928187505191e-02,-1.287101937118149270e-02,7.255384448555479704e-02,2.359810806752726808e-02,-6.299095174342961290e-02,9.744662216638978747e-02,5.615680476198847693e-02,9.466550159593489777e-02,-1.340201864563094480e-01,-6.549082834975497591e-02,1.705208390395783202e-01,-2.829970394447425264e-01,-6.460336761603215072e-02,5.920148434102612267e-02,1.198109020289379184e-01,-5.947309217134903736e-02,-3.689946286805913158e-03,-2.139792133451477035e-02,4.673032378130213826e-02,-1.621227598488968538e-02,-1.887662673906145838e-01,2.708900382972825177e-02,1.679124947893293526e-03,-7.371591792082288208e-02,5.628201507898723810e-02,2.489755930105768122e-01,-2.437888476252474557e-03,-4.013697486548292725e-02,1.207181392484904803e-01,-2.137820964049312253e-02,-1.869039936805756419e-01,6.807208234938244562e-02,1.293361702402743563e-01,-2.324392500572314557e-01,1.379798757229099837e-01,-1.861390308318202347e-01,-1.050574067398913625e-01,7.578862008116651894e-02,3.084844803713338718e-03,7.314560606127558373e-02,-2.462486855499087732e-02,6.458830593650422003e-02,-9.471275512324843493e-02,-3.439171053630134256e-02,1.527800492267952226e-01,1.416827007493444250e-02
-1.195903538882768652e-01,-1.701618118799781872e-03,-3.471483800059979585e-02,6.875413085022731574e-02,2.745397756669389761e-02,-7.668670075769963568e-02,3.391000608744163675e-02,5.900694977783835227e-02,-3.437211658571266010e-02,8.550447929732589436e-02,-1.011051857394253128e-02,-1.320251846253338128e-02,-6.231243214886814097e-02,-8.535715989273419402e-02,1.131987418248397576e-01,-2.385552157098573545e-01,8.536660863747784836e-03,4.990078295516994777e-02,6.577092812271066735e-02,1.837488628945070299e-02,9.402570367805183904e-02,-1.060595401825044776e-01,7.398484107706133905e-02,-7.858014111272131064e-02,-7.003820748727561385e-02,-2.087036887871525706e-02,1.432246148713610112e-01,-2.835252569095455047e-02,3.177101649560442470e-02,1.155545194142774401e-01,-4.760640305284479651e-02,4.730466306546324273e-02,2.147816358733582731e-01,1.043678541629579348e-02,-1.893076359798939179e-01,-2.785505408412630030e-02,8.258278379268134406e-02,-2.157764523153681835e-01,1.569488178901848885e-01,-4.558743139162087232e-02,-1.310188815476110991e-01,1.204352457039251090e-01,-2.723319329537393640e-02,1.240199346464863212e-01,-1.426349277775354474e-01,8.670661170136881313e-02,-6.639220044384143427e-02,-3.705201481171856246e-03,2.795502577109417949e-02,-2.999641081637878168e-02
1.045216283987890132e-03,8.674185366373118530e-03,-1.320708629420874192e-01,-1.353488306070681491e-01,-8.485130077730214382e-02,-6.294524268926664223e-02,7.718045842056842076e-02,-8.019218042175144112e-02,-3.117251374374691367e-02,1.642405565605560003e-01,7.520349606581566704e-02,2.156397371295863952e-01,-1.702535357591543064e-01,-6.437031709779115866e-03,2.207049249980193029e-01,-2.419100903106495004e-01,-5.960670010777196354e-02,1.136248710383117866e-01,4.083227533984239155e-02,-4.880766485990976900e-02,-1.099668058116975468e-02,5.221836591386757459e-02,-5.146129366411182626e-02,9.022187511446388974e-02,-1.865291295467918498e-01,8.503529598109879628e-02,-2.619041852408201046e-02,-1.858318776746701873e-01,-5.449827958077499424e-02,3.072851494682586893e-01,-6.756935313096355811e-02,-4.693461181896960849e-02,9.604844675340014348e-02,-5.282224312011870627e-03,-1.726342465590450515e-01,1.231430850704245544e-01,1.443751440737821856e-01,-1.751145741255449584e-01,2.550244674212902990e-02,-1.746014513081055319e-01,-6.646772999015278238e-02,9.325724322705076716e-03,3.124604568270006669e-02,4.405786873182335195e-02,2.436159188296483161e-02,1.243057038319901469e-01,-3.178737477561321273e-02,6.123404873968930039e-03,1.981779149331692191e-01,-5.435648534997955528e-02
1.060203259578205645e-02,-3.101599345181844936e-02,-5.809798712626754180e-02,9.630983541401778522e-03,1.367581346677460355e-02,-2.567133234096318048e-04,4.146843069789262620e-02,3.104612647232721234e-02,-3.946799925760779981e-02,3.870259225028807593e-02,2.810647562616084422e-02,2.923698669703983510e-02,-7.480167312413614489e-02,-7.212305235590686647e-02,1.083185087475684455e-01,-2.016747922700072027e-01,-3.736739358279041884e-02,3.673278508656293434e-02,8.662712162707694730e-02,-3.445905081543855497e-02,3.619126499633837368e-02,-3.252989473145661420e-02,4.838815816414509391e-02,-2.070745702547929085e-02,-1.150539556251173046e-01,8.848315104872836803e-03,1.583129588666421644e-02,-4.410475698569010089e-02,6.063513434301738558e-02,1.570099155121204848e-01,5.387823672599426593e-03,-1.797077311512838144e-02,8.560574496157713487e-02,-1.872438851525708853e-02,-1.246686055007762139e-01,1.796473981606901138e-02,7.874350893951770347e-02,-1.598213687214092293e-01,1.132541722553945390e-01,-1.170857443584670393e-01,-7.143400138859538895e-02,7.387759770798017767e-02,-1.257279746904051317e-02,6.426006783498949826e-02,-5.495526178458228633e-02,4.334208209069204121e-02,-5.763098729149486454e-02,-7.647020541651401715e-03,7.640498587329905278e-02,4.189974012143433263e-02
-5.690716813835013099e-02,-4.203829322089515375e-02,3.773325599160645694e-02,1.360894603652814672e-01,1.042286021423544234e-01,7.929022181857958360e-03,-7.386247292530444611e-03,1.380355694576000936e-01,-2.844017814518796927e-02,-3.305659507185552959e-02,-3.559215776736689846e-02,-1.405902177158958599e-01,2.351702380401194531e-02,-9.470641242118704728e-02,1.865006918696368544e-03,-1.255427109077272840e-01,2.648852944076411989e-02,-2.839077851768402605e-02,1.027749846422300328e-01,1.259487862858270010e-02,8.915038645257128413e-02,-1.201604010311990295e-01,1.306551393107030223e-01,-1.534797293057480749e-01,-4.136577974811494335e-03,-6.071629147202328020e-02,9.984601054067882009e-02,9.103774575394711632e-02,1.248463167820485775e-01,-1.922506164253197022e-02,3.424192798723681153e-02,5.187754735855740207e-02,1.159514912375551876e-01,-4.130993821407225562e-03,-8.303240773402294217e-02,-8.767981720110741561e-02,1.449606737751765392e-02,-1.422000133006013911e-01,1.695796809460017041e-01,6.683152599535708768e-03,-8.283256993300867899e-02,1.121875853708962228e-01,-4.681772015208029297e-02,8.423277013033482474e-02,-1.417853559770481386e-01,-2.923060465455970189e-02,-7.147848363826390938e-02,-1.948701506455039617e-02,-5.200655524002881919e-02,8.004114669744549770e-02
1.211570248592747263e-02,-2.134976891731222085e-02,-1.192449808976302553e-02,1.905479590966515594e-03,3.513222842084307105e-03,1.022477204066757697e-02,1.465528042388137935e-02,1.371502739282082738e-02,-1.284388926387785256e-02,1.065420573556537763e-02,9.842689400371364486e-03,1.070739607146582381e-02,-2.316297011506740500e-02,-8.169829968983004925e-03,3.216047694095547360e-02,-6.499553747193904940e-02,-7.796570683104453274e-03,2.877854487977979207e-03,2.879747316405922852e-02,-2.098977658877077337e-02,6.111413342009578212e-03,-8.048653006346632652e-03,1.030934498645203964e-02,-1.542746997110048179e-03,-3.413676697619278527e-02,9.579449397109104578e-03,-2.939829127409754328e-03,-7.165930395638472547e-03,1.215596712586307707e-02,6.325366745842499194e-02,8.036588097096068056e-03,-2.563316915550882882e-02,9.251848328572337757e-03,-1.417281558972667554e-02,-3.257563905524260561e-02,1.288393714645987009e-03,2.959061893405624116e-02,-4.540552129085023703e-02,3.742484122566643728e-02,-3.798630077676535405e-02,-1.857422183609297103e-02,1.840810172629052778e-03,8.729215351390290096e-05,7.763146704425034211e-03,9.440368376405570538e-04,-8.462288291029658807e-03,-2.270062031197833674e-02,-2.767792145792136432e-03,2.831749913452888748e-02,1.843869773448368263e-02
1.608694926254339297e-02,4.929469952481004349e-03,8.305795003297279698e-04,-1.514014953176875044e-03,-5.317244941805407583e-03,7.366025967670110711e-04,-3.448701218653101898e-03,-1.142248304716940790e-02,-3.173558848849204511e-04,6.594718656046570648e-03,-4.060165228835444645e-03,1.227014760830172097e-04,5.314913383425936937e-03,6.191401508568631674e-03,-5.858247420579694789e-03,1.205807181523519452e-03,-3.529285870270996821e-03,5.261423036509849278e-03,-5.582923450705716724e-03,6.355667126851378967e-03,-8.631894824934720559e-03,-1.804497251487867382e-03,-3.692181992115749472e-03,1.056765334362159275e-02,1.139042548368148465e-03,-6.539593978024504060e-03,-6.599956016812607434e-03,3.202536039768495539e-03,-1.133842835960797123e-02,-4.325224641693446552e-03,2.530375138911331295e-03,-6.270967873069781089e-03,-1.186413135772181222e-02,2.202153952091037183e-03,8.422042263587621591e-03,-4.260248116949561480e-03,-1.942999808090989898e-03,1.653829763043700510e-02,-6.733521317092489543e-03,1.080544293713628541e-02,-9.099711288377198767e-04,-7.951924359303003120e-03,7.147977314809748385e-03,-9.862900596641193882e-03,9.836041822007790189e-03,-3.037700060265385079e-03,9.799495981815642756e-03,-1.983387796047839276e-03,-5.779665935888347525e-03,-7.828613973616442567e-03
2.173836334150824612e-01,-6.964287088890082356e-02,-5.783901649974442644e-02,-9.920999782769909792e-02,-4.281096619855719737e-02,1.317055600708717522e-01,1.721180907653891909e-02,-5.099073500174177570e-02,-1.729847621935695287e-02,-6.190533009862874553e-02,7.906414633305212936e-02,8.805317920527690190e-02,-5.684677736047185487e-02,8.393782460544783885e-02,-2.030695518820760728e-02,3.669665895068811856e-02,-9.588466842628674824e-02,-2.422149330029698885e-02,3.448038032651668666e-02,-9.302071546161611026e-02,-1.403649723013505601e-01,1.728868426748758624e-01,-3.211117001886120564e-02,1.114302420402773636e-01,-1.008035317918251489e-01,6.287692138104644668e-02,-2.109234711635084303e-01,-3.328349307185773931e-02,2.817178646553459773e-02,5.246828746085026307e-02,7.302957493566986091e-02,-1.147962632455146459e-01,-2.128943145809541193e-01,-5.041249110607956552e-02,9.543073495346150736e-02,9.385045383634829652e-02,-1.744484611362744075e-02,9.047354076345767715e-02,-9.170892630982264981e-02,-1.441691234991903381e-01,9.166466647963592007e-02,-1.005419241775499933e-01,2.667656771441372782e-02,-1.542673714384096839e-01,1.928787896186205386e-01,-7.692618488704242030e-02,-2.192498978337589430e-02,-4.260137949948326896e-02,8.490537714690214732e-02,1.014718863890096967e-01
1.443674715638038585e-02,-2.277694729863873405e-02,6.823540720663902326e-02,9.673173035806617581e-02,7.058723564326629951e-02,4.858092887670525245e-02,-2.223988265276136481e-02,6.655055381441178641e-02,7.284049215520744386e-03,-9.325346222258813766e-02,-3.292981715523316671e-02,-1.325032433470508253e-01,9.074061454160364804e-02,-2.652605131390921300e-02,-1.026236964548850744e-01,8.946314195300633654e-02,2.629695823879232147e-02,-7.558698741801439525e-02,7.089710062254043869e-03,5.700565590955624165e-03,7.348349400548901886e-03,-3.331366795857056834e-02,6.867998883679989064e-02,-8.043307546376333994e-02,7.337545388728933249e-02,-5.350364599171768959e-02,7.583265677515607477e-03,1.218616187056826422e-01,7.183363102367540387e-02,-1.370646615826121573e-01,5.547207537106925435e-02,1.650822613681649995e-02,-3.602076763386989622e-02,-3.385900799104448605e-02,8.107547155972673336e-02,-7.405339166320107358e-02,-6.854971741100346350e-02,5.860397213415497603e-02,2.687969224646908836e-02,8.299090239212886244e-02,8.078560234567275580e-03,1.579050776188556382e-02,-2.813074561777686652e-02,-1.438580102635179762e-02,-3.093010645634942241e-02,-8.177586689505389472e-02,-2.590411373383545582e-04,-7.056648228533490309e-03,-1.018764457588198780e-01,7.134320385660077035e-02
-4.859651451814193251e-03,-3.281855221511013887e-02,-7.651826510741445431e-02,-3.907532547898794929e-03,8.174949973148029972e-03,-1.641173196753969998e-02,4.918580019139473514e-02,3.472196271188003613e-02,-5.826647494627519575e-02,7.297687622030657462e-02,6.054790365447497436e-02,5.897550776018130325e-02,-1.211709455870677299e-01,-6.551043546464485612e-02,1.558133049238827894e-01,-2.871181736342585111e-01,-5.615401411381777674e-02,4.621788048415722411e-02,1.083109327354157686e-01,-5.025809432086700279e-02,3.499807023389592958e-02,-4.173751490630294575e-02,6.018544522769900956e-02,-2.829400193556435433e-02,-1.660464874995925544e-01,2.168360321634691529e-02,2.556724235476300067e-02,-7.037353754638660253e-02,5.549348144491451917e-02,2.205689021965913932e-01,2.182720612702335455e-03,-2.885040902544784916e-02,1.203844899580510802e-01,-2.265389948509759568e-02,-1.744100170792080295e-01,4.647252228389112810e-02,1.238485679732057171e-01,-2.348593001662613866e-01,1.488868280767848273e-01,-1.482324551365251375e-01,-1.077049315114652905e-01,8.922280241381846944e-02,-1.582350369739013787e-02,6.153397051615826230e-02,-7.093503741882295488e-02,6.705390264854947657e-02,-9.222318214635084888e-02,-1.894568739410871366e-02,1.179222687094923228e-01,2.498623455922869760e-02
9.118611670096235522e-02,-5.766576460809481192e-02,-5.538961825134702810e-02,1.738352662754616461e-03,-2.517755350903158520e-03,6.113398535741668832e-02,4.373729470931961988e-02,3.191085030096547925e-02,-4.957905152026521878e-02,-5.521905420508924252e-03,4.542010479116676686e-02,3.577668852514401254e-02,-7.610769541859570275e-02,-1.731807816111381737e-02,7.425542206016882973e-02,-1.565462969555227457e-01,-6.721621748476772074e-02,3.727778938202675439e-03,1.090994767249332253e-01,-7.282537021627072393e-02,-3.793815279177188693e-02,4.034038747822005222e-02,6.301484250830539924e-02,-4.100784254844922622e-03,-1.325781793086277804e-01,2.695421855016641444e-02,-8.223563499844671609e-02,-1.871003158134261490e-02,9.648206715391939581e-02,1.330662675879055179e-01,4.293703425389303052e-02,-5.393122316311310671e-02,-2.127287780798736705e-02,-4.082984970627797500e-02,-6.575088754497893095e-02,4.428931025647633857e-02,6.055671424708213013e-02,-1.032586928282379496e-01,7.603819953785279084e-02,-1.534200749741536640e-01,-3.067461639340616358e-02,3.166503850692694438e-02,-4.954588813419575841e-03,-7.142219253648513649e-03,4.190326672331897567e-02,-1.188740302261858013e-02,-8.106360684554728135e-02,-1.991133393204723434e-02,1.016343090048910519e-01,9.956978500627451656e-02
4.211969891507336139e-01,-2.508660779555803577e-01,-1.967247828149938926e-01,-1.850812747245741616e-02,4.936584664570121961e-03,2.825708825318947737e-01,1.407928376021886641e-01,8.668218613985856358e-02,-1.599865337019628631e-01,-6.876171370362756108e-02,1.988641057549930813e-01,9.508842122787515561e-02,-2.673574672018920184e-01,-4.287447483301295992e-02,1.786675717143939857e-01,-4.042106072552562601e-01,-2.659995876549424709e-01,-2.526330121403588119e-02,3.761420523596997190e-01,-2.644843905251819671e-01,-1.736200884724162230e-01,1.922543413333121232e-01,1.746365709862003901e-01,1.755242899530259221e-02,-4.775716476246682496e-01,1.000446783678772961e-01,-3.436220758191606550e-01,-6.224087295615463034e-02,3.339758639294377329e-01,4.067527245453574913e-01,2.112597269753120344e-01,-2.550662058857443570e-01,-2.135780626505753010e-01,-1.758592641421635183e-01,-1.286235473449222899e-01,1.910543233402096919e-01,1.710315444118110650e-01,-2.704520197293024952e-01,1.960998991143773074e-01,-5.562551345833336436e-01,-5.088871994939338922e-02,1.510630753776391784e-03,-1.001112336149641638e-02,-1.427129182053687995e-01,2.058121633301452924e-01,-1.174479329238376779e-01,-2.566805283906691826e-01,-1.327601210259290732e-01,2.947300037450318322e-01,3.500574215273947187e-01
4.886025145572598510e-02,-1.768402722316005649e-01,-2.255406683099863419e-01,1.535392413886505769e-01,9.854735983382620357e-02,6.051733025475505845e-02,1.964773135846633600e-01,2.463714402876165666e-01,-2.140828387613614159e-01,1.521593770787349476e-01,1.352308081178283661e-01,5.127758221957395141e-02,-3.735160507570886579e-01,-2.735779324016992531e-01,4.505785570001292206e-01,-9.314121534792250134e-01,-1.967298077113218413e-01,8.828830103236127991e-02,4.958450076123659400e-01,-1.739304475773584546e-01,1.148926124739643173e-01,-1.404259879979093961e-01,3.311504415802279944e-01,-2.100869220304875384e-01,-5.535329240783881666e-01,3.332290111885935491e-02,5.154520062003912356e-02,-1.274162402990251242e-01,3.584083678920376159e-01,6.837555979560531183e-01,7.617992320169178488e-02,-8.251575606468418422e-02,3.546829133336485973e-01,-1.248512537430900571e-01,-5.710557429094983428e-01,8.419403815007588110e-02,3.776249027634621669e-01,-7.679536287530843719e-01,5.927702685628220003e-01,-5.334869431254115613e-01,-3.606642850649671717e-01,3.356574203897682018e-01,-6.031694871250860290e-02,2.440803643280626545e-01,-2.067091142227712453e-01,9.770674376549133566e-02,-3.707831013416863497e-01,-8.451282329462506127e-02,3.401808878072615228e-01,2.287642610555258860e-01
-6.921051248479230533e-02,-1.201870462896982225e-02,-1.458104893028111526e-01,-5.003636169329474248e-02,-3.090553801845878287e-02,-7.957937086613968425e-02,8.290396976059266620e-02,-6.532414245806185578e-03,-7.664820469471056441e-02,1.782707431289037581e-01,5.320410449413937037e-02,1.512163645404491774e-01,-1.966022604482076663e-01,-9.711874168758438675e-02,2.695881498653653896e-01,-4.031028504566889215e-01,-6.053190186899925357e-02,1.097831190113373045e-01,1.075680918448312096e-01,-4.662943618670063739e-02,5.395022640744329134e-02,-6.498342871320227088e-02,2.069066588514115179e-02,-5.326814514046238763e-03,-2.200541426120054267e-01,5.640483765872777999e-02,6.141506260129373646e-02,-1.693546462790998797e-01,-6.759964685395201782e-03,3.709122736669867582e-01,-6.595789997585983777e-02,-2.772361926243592858e-02,2.302576839114213736e-01,-5.499488069468570946e-03,-2.974259095659159691e-01,9.089452937167717683e-02,1.908287314721286154e-01,-3.274467010031538172e-01,1.556403874034448520e-01,-2.027591091545183355e-01,-1.571934156035140751e-01,1.188752921734513301e-01,1.639506920447000946e-03,1.392916101954606578e-01,-6.967229076527096943e-02,1.447898089860121529e-01,-9.206065416249795130e-02,-1.081146127809900874e-02,2.178103418629482591e-01,-5.594882652051197391e-02
1.765906881869677703e-01,-1.557983414867732674e-01,-2.000209044740281217e-01,1.938342190837448464e-02,1.619170546631040070e-02,1.155457432236745158e-01,1.506901068054672388e-01,9.542901522546338999e-02,-1.534058480694588389e-01,8.107908925499765496e-02,1.491111353545153950e-01,1.199279813716921522e-01,-2.968367901573817358e-01,-1.175565014979063488e-01,3.064304803144028977e-01,-5.854851586955355236e-01,-1.887731576226988894e-01,5.305453924787659897e-02,3.429422259124120242e-01,-1.821464932127441760e-01,-3.146735291121015299e-02,1.833404419906555644e-02,1.889048780522297466e-01,-6.136420298337775386e-02,-4.359879196863855055e-01,6.350003414177432526e-02,-1.174636818207479561e-01,-1.335546351097687545e-01,2.536360802835488926e-01,5.154403659746968902e-01,8.586474885355181719e-02,-1.440393973756710633e-01,8.481036397129117221e-02,-1.156066324956882690e-01,-3.214953130457712249e-01,1.521156169566492133e-01,2.414078629557659672e-01,-4.514069141910930782e-01,3.106774288120383032e-01,-4.744730863788679254e-01,-1.722983479164100495e-01,1.477107508313460493e-01,-3.239574749228506245e-02,5.018452733542465294e-02,-8.486183196749902402e-03,2.736256627718392648e-02,-2.476876600262796213e-01,-8.532635782611475150e-02,3.016314722902979084e-01,1.998542387512656504e-01
1.921534455345813852e-01,-7.082733625697142099e-02,-2.771171427316825309e-01,-2.376670802809871530e-01,-1.593403999439477470e-01,2.611357671882873557e-02,1.479637341958735253e-01,-1.377882831768004190e-01,-9.606437568979309116e-02,1.936810695004200777e-01,1.908408767796363481e-01,3.688216773238134905e-01,-3.563217026346983674e-01,1.540530549193660538e-02,3.710251147656417614e-01,-4.786045467107453155e-01,-2.247962068885756559e-01,1.503658068243177437e-01,1.850054916688810280e-01,-1.698392515678953107e-01,-1.226945507213903080e-01,1.572177917894832522e-01,-5.182923154279839989e-02,1.762497931741104640e-01,-4.509005692855794223e-01,1.668908295289349142e-01,-1.991337210756503051e-01,-3.191532064241637823e-01,2.259137627824121808e-02,6.031635665408535685e-01,-2.128568784855537632e-02,-1.819962247722234361e-01,2.074967654949910756e-02,-6.136709052431630479e-02,-3.026716894765962840e-01,2.902156772588772582e-01,2.650831394109786632e-01,-3.307308482116645965e-01,7.485948931593278122e-02,-5.091379669612471348e-01,-1.040814229940867364e-01,3.270492753851250364e-03,5.396123439238614816e-02,-1.781201041105723998e-02,1.756397109321626016e-01,1.334848046859223591e-01,-1.537136072324187808e-01,-4.284532610097111643e-02,4.305555995057884777e-01,3.218507873331245828e-02
1.065847691885061718e-02,3.139109130051190300e-02,-1.717615894984675373e-01,-2.225549266544704918e-01,-1.436320079023383767e-01,-7.472206857732006935e-02,7.072598145119403379e-02,-1.639230638342040469e-01,-2.235852758326417611e-02,1.840055765025775114e-01,8.863596524364747431e-02,3.046299021544206509e-01,-1.992329113287201747e-01,3.547734557816618894e-02,2.260637877694790798e-01,-2.293254834122277763e-01,-1.041743435105159377e-01,1.348893559942792308e-01,-4.548902688527975587e-03,-6.652455174162281992e-02,-6.510514915025629457e-02,8.457422121161688178e-02,-1.169685831146114741e-01,1.545305114097635935e-01,-2.080499681779562349e-01,1.125119028931832882e-01,-6.135848626959090196e-02,-2.539693249446267620e-01,-1.153725778862481482e-01,3.604042596558075795e-01,-8.818525764529457078e-02,-7.284299067739236078e-02,9.167423469572935635e-02,1.243973954971795519e-02,-1.806035663903066968e-01,1.769651766825710848e-01,1.399950760030472252e-01,-1.383165949857644017e-01,-3.744331247640912685e-02,-2.218589425018927253e-01,-5.501061648379050595e-02,-2.707814897354669445e-02,4.215810236247685000e-02,1.786471830605647348e-02,9.671546314741917560e-02,1.482589916881165149e-01,-1.738770634547897112e-02,7.432263109733138091e-03,2.602782914395104785e-01,-1.037854753460208113e-01
2.043271340450584783e-01,-1.039200786370381990e-01,-1.811581842073605730e-01,-1.204047774300436441e-01,-7.898565294764034461e-02,8.609923020295848217e-02,7.507147051972933027e-02,-4.190917327117225921e-02,-8.523071153226967345e-02,6.632577260428416943e-02,1.360845739372371632e-01,2.021181597124663276e-01,-2.392373746876297613e-01,1.400475066989412699e-03,1.936004550513804601e-01,-3.004702828955948535e-01,-1.772066080478125194e-01,6.719100583669007642e-02,1.758792523307136091e-01,-1.456159085787676610e-01,-1.194577749081918022e-01,1.339171886502649733e-01,2.884041681342002991e-02,7.877673845859965718e-02,-3.361790563512910279e-01,9.375212686632354575e-02,-1.877915233280118279e-01,-1.497073937443063885e-01,9.314877641727131730e-02,3.648095767654143673e-01,5.095230007187620536e-02,-1.721090227386486426e-01,-5.350658405488603608e-02,-7.795188480968988365e-02,-1.517144708896992211e-01,1.750256245139308053e-01,1.546626796750542876e-01,-1.799480964013918938e-01,7.056780919544600184e-02,-3.681131686287130167e-01,-3.807196842880594678e-02,-1.250272811989477754e-02,1.868621739791584413e-02,-5.958501570684389403e-02,1.411075045128405980e-01,3.788552637174193854e-02,-1.342579459684409560e-01,-6.344957085281890952e-02,2.703597435248161207e-01,1.082773471075871019e-01
2.465990310573130118e-01,-1.445504773322738856e-01,-1.780415794294717136e-01,-8.385987315869321279e-02,-5.448223929494387663e-02,1.297175670646412426e-01,9.654757097350545603e-02,-1.130237001522332472e-03,-1.224492444044468775e-01,1.786726581449114490e-02,1.443486237574606035e-01,1.734344525000426629e-01,-2.383964167596836770e-01,-1.343591196385597250e-02,1.912471713711449972e-01,-3.321164775834835603e-01,-1.989313913297857117e-01,4.641450273218530875e-02,2.308742140436639556e-01,-1.712176059794873473e-01,-1.175550815159184942e-01,1.255219638282952799e-01,6.013670791714985364e-02,5.115702834167198260e-02,-3.575395911303494434e-01,9.144706563556556644e-02,-2.073526272128576597e-01,-1.251105081095810756e-01,1.543307177542431741e-01,3.781865571021227335e-01,9.429051093008554429e-02,-1.752391657887605592e-01,-8.668233954535933816e-02,-1.047831349073934659e-01,-1.547902763906686130e-01,1.737642320715187538e-01,1.618026808255118854e-01,-2.323393111084080531e-01,1.156223295199507589e-01,-3.977565931104950492e-01,-5.951618589930206954e-02,-8.351085706980274082e-03,7.349122417746650239e-03,-6.519566235432558421e-02,1.391698014681360951e-01,-1.934798067554827430e-02,-1.680759204103008386e-01,-8.056859598817528445e-02,2.770900754919379261e-01,1.723881774211971085e-01
1.063868793877024016e-01,-9.660761247591542755e-02,-1.043324123805700610e-01,-8.944966767622842402e-03,-3.332515453156853057e-03,6.250184019464002927e-02,6.872364030416594494e-02,4.042129053710611514e-02,-9.794708126636138268e-02,4.563519093065351168e-02,7.708920236920584201e-02,8.239074506887714144e-02,-1.703711700702975618e-01,-6.579914114600472763e-02,1.611008276557192864e-01,-3.135205199400297738e-01,-1.240715373879991146e-01,3.210554848858328258e-02,1.814143271385680878e-01,-9.855500055134439052e-02,-2.797485039690113251e-02,1.378271997862083771e-02,9.088526765275685426e-02,-2.272021683180633703e-02,-2.528937603462707018e-01,4.721315895835579562e-02,-7.861985056673402583e-02,-9.015893309562582336e-02,1.477307944810045126e-01,2.669299568360949393e-01,5.547736067606563043e-02,-9.491014639806472086e-02,3.858507688872656743e-02,-6.403342298784793496e-02,-1.854369671462453018e-01,8.669179624603738643e-02,1.233295411902279731e-01,-2.425250586768319672e-01,1.808130415579936312e-01,-2.658689193608960721e-01,-9.224191138873370777e-02,6.545429396391480581e-02,-6.456329486512471169e-03,2.045719369872088869e-02,6.364759499365284581e-03,1.303610119170289620e-02,-1.401078742607008709e-01,-5.743932866270129445e-02,1.706226133822922875e-01,1.026180585928482270e-01
1.303284559621764316e-01,-9.889519227532997392e-02,-5.359046469837235038e-02,4.010310370120460238e-02,3.116393342132484090e-02,9.727689362945091123e-02,3.188769947064153121e-02,7.431833904498888477e-02,-7.312386777239120172e-02,-2.474066035242761599e-02,4.970220591918168146e-02,-4.828885328555702385e-03,-9.249781662671935356e-02,-3.956317552613121402e-02,3.947277593540365198e-02,-1.526000643620887276e-01,-9.244811750521039762e-02,-2.676052462450423039e-02,1.396834972174808842e-01,-9.011341018270149772e-02,-3.558269091104093729e-02,3.488788054030295127e-02,1.009604635849456061e-01,-3.352812534051316518e-02,-1.464014331838746075e-01,1.442538858436894986e-02,-1.041516157448801883e-01,1.345254069432153324e-02,1.370542301186187806e-01,1.087912022257610245e-01,6.527729759312654589e-02,-7.163334995976911035e-02,-5.010577884561891182e-02,-7.402955111305269120e-02,-6.428113282076226842e-02,3.566661453506712876e-02,5.837117456838578078e-02,-1.208984158816256288e-01,1.112819302402500987e-01,-1.653457509099267309e-01,-3.344972312656328134e-02,4.651294194344367250e-02,-2.161272287926419358e-02,-2.979251392257455111e-02,2.289979293151051670e-02,-5.001153185839552623e-02,-1.173888293527865362e-01,-5.528753383899950163e-02,7.056528869853168073e-02,1.389254077086710393e-01
2.452911485244192447e-01,-1.550561505083611069e-01,-1.293870311491477632e-01,-1.319221562804496345e-02,2.505803456325320002e-03,1.561255819934888323e-01,8.817607867082287443e-02,6.334739828654216420e-02,-1.172203350869501365e-01,-2.417254545153377232e-02,1.262656211177934640e-01,6.584071724664881942e-02,-1.949826485527424158e-01,-3.463051942936444527e-02,1.419113199174322493e-01,-2.964129254452655959e-01,-1.782754941712654806e-01,4.902166346231629640e-03,2.490314668275327992e-01,-1.711606158321241911e-01,-9.889234164305438224e-02,9.877695042931752822e-02,1.214992053140066669e-01,4.398192184880518542e-04,-3.297579399342457918e-01,5.936446948834364634e-02,-2.076761585460087656e-01,-5.801464457701659139e-02,2.085652396517449769e-01,2.864446221608066279e-01,1.203879587250894501e-01,-1.629107208246431127e-01,-8.755735909684866924e-02,-1.100609465052101721e-01,-1.264714517948800354e-01,1.258228383845962639e-01,1.271271817962692507e-01,-2.164869838502211652e-01,1.634136653754902357e-01,-3.583952500529391516e-01,-6.896321514794531704e-02,2.943740268448548705e-02,-1.438424377689430725e-02,-5.475391593100058935e-02,8.317110352930943973e-02,-5.739239429390748104e-02,-1.731339249195262275e-01,-9.354404487618585284e-02,1.993145058445927598e-01,2.122297791252693300e-01
1.735915316377407980e-01,-1.383704145740951574e-01,-8.945486931133239672e-02,5.332216222579460457e-02,3.582605494264536061e-02,1.359573500884442288e-01,7.003156754652747895e-02,8.523677034948116960e-02,-9.730778856269407806e-02,-4.057223895777632011e-02,9.135713442049053779e-02,2.940701888444566606e-03,-1.351780846208070208e-01,-6.559366891162800306e-02,9.079899008191778809e-02,-2.538959574801500363e-01,-1.286278058280405090e-01,-1.706308378251652699e-02,2.306030915487231048e-01,-1.338286534156157281e-01,-4.793203385250183191e-02,4.237341960487953085e-02,1.378511527710068463e-01,-6.091871315889193367e-02,-2.578065293728397100e-01,2.532155385272079687e-02,-1.394856380430068710e-01,3.218462900225701768e-03,2.020251562209481044e-01,2.071379687108469425e-01,1.010759650039368684e-01,-1.149043351739897217e-01,-5.388871092063594881e-02,-1.068699684654833421e-01,-1.086467906307048426e-01,6.029303283063160851e-02,9.969429379939717673e-02,-1.930362334474517716e-01,1.777287550877624800e-01,-2.856674062290336935e-01,-7.240157469323667272e-02,4.514564771331057436e-02,-3.245425063436192803e-02,-2.104207022333687629e-02,4.347569291966210669e-02,-5.612885727478394288e-02,-1.672973290101833210e-01,-8.285842494546648285e-02,1.388094056744505478e-01,2.021271224866521554e-01
1.245727706135710544e-01,-1.011698852152898981e-01,-9.224419694279729909e-02,2.565049824627383193e-02,5.126196078496995760e-03,8.358246247288220188e-02,7.271513672836601994e-02,7.643707617669194543e-02,-9.123174559857046007e-02,1.448534573410627246e-02,8.099700910746207572e-02,3.484973806001076535e-02,-1.457892127053058429e-01,-6.429478940716763791e-02,1.282555896624075764e-01,-2.648006999607377954e-01,-1.116791859184450564e-01,1.413964702998075397e-02,1.898890991778008908e-01,-1.015580119685624561e-01,-3.355160255314513368e-02,2.063486930167878972e-02,1.153586936303092753e-01,-3.978348049357141591e-02,-2.354872705242667397e-01,3.084220508344923464e-02,-7.839096312396184874e-02,-4.066207406651480005e-02,1.517290173821018995e-01,2.160838337917129481e-01,6.794020805133538232e-02,-9.137047374121186338e-02,1.637881024683186587e-03,-6.454367927626319945e-02,-1.366600043689659150e-01,5.940114931331834380e-02,1.099818995933632831e-01,-2.075378783304474006e-01,1.587995142387471637e-01,-2.455106464761304952e-01,-7.775514208614492384e-02,5.889471228282780468e-02,-1.094288805962501457e-02,1.832910573263553042e-02,4.978560865780520123e-03,-2.214496046421908851e-02,-1.318686751161938231e-01,-6.949888453118666098e-02,1.329762430860864653e-01,1.221372339609566315e-01
1.566791756473906727e-01,-9.392530279495321655e-02,-1.330955025942151260e-01,-5.242322200557703038e-02,-3.401052637115620225e-02,8.498012852814310070e-02,8.738958448219570629e-02,5.085625671591747360e-03,-8.734953862118674528e-02,4.600175477446437344e-02,9.865073408468930105e-02,1.196778537878040033e-01,-1.918149984073581615e-01,-3.318648863130223281e-02,1.682260297725309828e-01,-2.826809376257209405e-01,-1.426259413884268523e-01,3.819082134345103130e-02,1.789625436098701561e-01,-1.364560860013765420e-01,-7.856724595022504531e-02,7.392555281582716131e-02,6.251208410629949253e-02,4.076499524712113437e-02,-2.632917509644328580e-01,7.799155865302175028e-02,-1.470818758747159394e-01,-1.008549964443858915e-01,1.259811936628759954e-01,3.000429615258831673e-01,5.202964266076250122e-02,-1.126755205805586441e-01,-2.594931450178055571e-02,-8.161344333618181235e-02,-1.367086757216985915e-01,1.246899719374080645e-01,1.279692798933458331e-01,-2.065434598461013682e-01,1.158102749257508002e-01,-3.211068006371199934e-01,-6.461532557191584925e-02,2.432706111346955372e-02,1.298785985046187631e-03,-2.291561321545044008e-02,8.956690575812072119e-02,9.413973658442799375e-03,-1.324647089841831382e-01,-5.043752152147141371e-02,1.936744290477434294e-01,1.187363730520981514e-01
1.970965470096032179e-01,-1.206540276278671303e-01,-9.330725419368000872e-02,-5.055667423915655156e-02,-2.326140527724948615e-02,1.405947620895557360e-01,6.397901800162603125e-02,1.500520993093586684e-02,-7.697114922521744451e-02,-2.571600506448774859e-02,9.707790093397367093e-02,7.871791389870090583e-02,-1.431923772275627282e-01,-1.964851076058986463e-03,8.686561123124994510e-02,-1.631730757339665827e-01,-1.346308076619271432e-01,-6.987343704822738394e-03,1.613448627707270433e-01,-1.237658312874493904e-01,-1.050248245327548430e-01,1.071398110950921162e-01,6.274958878654876560e-02,3.508536444101171409e-02,-2.245970081503626259e-01,5.669799583748953709e-02,-1.881231374068287332e-01,-3.752170637226503319e-02,1.444293876370292828e-01,1.809602070072445779e-01,8.660424164620100784e-02,-1.120340283073334442e-01,-1.157163665926552315e-01,-7.543820691971793446e-02,-5.751587081972187737e-02,8.987002470456426084e-02,7.094476942249447471e-02,-1.019871047186924479e-01,7.274107946058248897e-02,-2.694109792856351770e-01,-2.153937359971593631e-03,-1.894615631293252930e-02,5.135476732453746456e-04,-8.429833461377223003e-02,1.150833198571307447e-01,-4.923668971911366460e-02,-1.116693914664342036e-01,-7.203295311813905089e-02,1.535144945611651435e-01,1.562087285949377014e-01
